<?xml version="1.0" encoding="UTF-8" standalone="yes"?>
<PMML xmlns="http://www.dmg.org/PMML-4_3" xmlns:data="http://jpmml.org/jpmml-model/InlineTable" version="4.3">
	<Header>
		<Application name="JPMML-XGBoost" version="1.4-SNAPSHOT"/>
		<Timestamp>2021-06-16T10:04:02Z</Timestamp>
	</Header>
	<DataDictionary>
		<DataField name="_target" optype="categorical" dataType="integer">
			<Value value="0"/>
			<Value value="1"/>
		</DataField>
		<DataField name="tgi1_18_24_6_12m_cnt" optype="continuous" dataType="float">
			<Value value="-999" property="missing"/>
			<Value value="NaN" property="missing"/>
		</DataField>
		<DataField name="cate7008_007_install_trend" optype="continuous" dataType="float">
			<Value value="-999" property="missing"/>
			<Value value="NaN" property="missing"/>
		</DataField>
		<DataField name="cate2_active_min_day_diff" optype="continuous" dataType="float">
			<Value value="-999" property="missing"/>
			<Value value="NaN" property="missing"/>
		</DataField>
		<DataField name="tgi2_18_24_0_12m_ratio" optype="continuous" dataType="float">
			<Value value="-999" property="missing"/>
			<Value value="NaN" property="missing"/>
		</DataField>
		<DataField name="tgi1_18_24_6_6m_cnt" optype="continuous" dataType="float">
			<Value value="-999" property="missing"/>
			<Value value="NaN" property="missing"/>
		</DataField>
		<DataField name="cate7016_003_12m_ratio" optype="continuous" dataType="float">
			<Value value="-999" property="missing"/>
			<Value value="NaN" property="missing"/>
		</DataField>
		<DataField name="cate7017_002_55_install_trend" optype="continuous" dataType="float">
			<Value value="-999" property="missing"/>
			<Value value="NaN" property="missing"/>
		</DataField>
		<DataField name="cate7005_001_install_trend" optype="continuous" dataType="float">
			<Value value="-999" property="missing"/>
			<Value value="NaN" property="missing"/>
		</DataField>
		<DataField name="tgi1_18_0_12m_ratio" optype="continuous" dataType="float">
			<Value value="-999" property="missing"/>
			<Value value="NaN" property="missing"/>
		</DataField>
		<DataField name="cate7011_998_active_max_day_diff" optype="continuous" dataType="float">
			<Value value="-999" property="missing"/>
			<Value value="NaN" property="missing"/>
		</DataField>
		<DataField name="cate7017_001_55_install_trend" optype="continuous" dataType="float">
			<Value value="-999" property="missing"/>
			<Value value="NaN" property="missing"/>
		</DataField>
		<DataField name="cate7012_009_18_install_trend" optype="continuous" dataType="float">
			<Value value="-999" property="missing"/>
			<Value value="NaN" property="missing"/>
		</DataField>
		<DataField name="cate7016_003_18_24_install_trend" optype="continuous" dataType="float">
			<Value value="-999" property="missing"/>
			<Value value="NaN" property="missing"/>
		</DataField>
		<DataField name="cate7014_014_45_54_install_trend" optype="continuous" dataType="float">
			<Value value="-999" property="missing"/>
			<Value value="NaN" property="missing"/>
		</DataField>
		<DataField name="tgi2_35_44_6_55_install_trend" optype="continuous" dataType="float">
			<Value value="-999" property="missing"/>
			<Value value="NaN" property="missing"/>
		</DataField>
		<DataField name="fin_46_active_max_day_diff" optype="continuous" dataType="float">
			<Value value="-999" property="missing"/>
			<Value value="NaN" property="missing"/>
		</DataField>
		<DataField name="cate7010_006_55_install_trend" optype="continuous" dataType="float">
			<Value value="-999" property="missing"/>
			<Value value="NaN" property="missing"/>
		</DataField>
		<DataField name="tgi2_35_44_6_active_min_day_diff" optype="continuous" dataType="float">
			<Value value="-999" property="missing"/>
			<Value value="NaN" property="missing"/>
		</DataField>
		<DataField name="tgi2_45_54_0_12m_cnt" optype="continuous" dataType="float">
			<Value value="-999" property="missing"/>
			<Value value="NaN" property="missing"/>
		</DataField>
		<DataField name="tgi1_35_44_1_12m_ratio" optype="continuous" dataType="float">
			<Value value="-999" property="missing"/>
			<Value value="NaN" property="missing"/>
		</DataField>
		<DataField name="cate23_install_trend" optype="continuous" dataType="float">
			<Value value="-999" property="missing"/>
			<Value value="NaN" property="missing"/>
		</DataField>
		<DataField name="cate5_55_install_trend" optype="continuous" dataType="float">
			<Value value="-999" property="missing"/>
			<Value value="NaN" property="missing"/>
		</DataField>
		<DataField name="tgi1_35_44_5_active_max_day_diff" optype="continuous" dataType="float">
			<Value value="-999" property="missing"/>
			<Value value="NaN" property="missing"/>
		</DataField>
		<DataField name="tgi1_45_54_0_active_min_day_diff" optype="continuous" dataType="float">
			<Value value="-999" property="missing"/>
			<Value value="NaN" property="missing"/>
		</DataField>
		<DataField name="tgi2_18_7_12m_ratio" optype="continuous" dataType="float">
			<Value value="-999" property="missing"/>
			<Value value="NaN" property="missing"/>
		</DataField>
		<DataField name="cate7001_003_12m_ratio" optype="continuous" dataType="float">
			<Value value="-999" property="missing"/>
			<Value value="NaN" property="missing"/>
		</DataField>
		<DataField name="tgi1_18_0_6m_ratio" optype="continuous" dataType="float">
			<Value value="-999" property="missing"/>
			<Value value="NaN" property="missing"/>
		</DataField>
		<DataField name="tgi1_35_44_5_12" optype="continuous" dataType="float">
			<Value value="-999" property="missing"/>
			<Value value="NaN" property="missing"/>
		</DataField>
		<DataField name="tgi2_18_5_12m_ratio" optype="continuous" dataType="float">
			<Value value="-999" property="missing"/>
			<Value value="NaN" property="missing"/>
		</DataField>
		<DataField name="cate10_18_24_install_trend" optype="continuous" dataType="float">
			<Value value="-999" property="missing"/>
			<Value value="NaN" property="missing"/>
		</DataField>
		<DataField name="cate7010_005_18_install_trend" optype="continuous" dataType="float">
			<Value value="-999" property="missing"/>
			<Value value="NaN" property="missing"/>
		</DataField>
		<DataField name="cate7012_008_18_24_install_trend" optype="continuous" dataType="float">
			<Value value="-999" property="missing"/>
			<Value value="NaN" property="missing"/>
		</DataField>
		<DataField name="tgi1_35_44_0_12m_cnt" optype="continuous" dataType="float">
			<Value value="-999" property="missing"/>
			<Value value="NaN" property="missing"/>
		</DataField>
		<DataField name="cate7001_003_6m_ratio" optype="continuous" dataType="float">
			<Value value="-999" property="missing"/>
			<Value value="NaN" property="missing"/>
		</DataField>
		<DataField name="tgi1_18_0_3m_ratio" optype="continuous" dataType="float">
			<Value value="-999" property="missing"/>
			<Value value="NaN" property="missing"/>
		</DataField>
		<DataField name="cate7019_122_12m_cnt" optype="continuous" dataType="float">
			<Value value="-999" property="missing"/>
			<Value value="NaN" property="missing"/>
		</DataField>
		<DataField name="tgi1_18_0_install_first_max_diff" optype="continuous" dataType="float">
			<Value value="-999" property="missing"/>
			<Value value="NaN" property="missing"/>
		</DataField>
		<DataField name="cate7011_998_55_install_trend" optype="continuous" dataType="float">
			<Value value="-999" property="missing"/>
			<Value value="NaN" property="missing"/>
		</DataField>
		<DataField name="tgi2_18_7_12" optype="continuous" dataType="float">
			<Value value="-999" property="missing"/>
			<Value value="NaN" property="missing"/>
		</DataField>
		<DataField name="cate7014_016_55_install_trend" optype="continuous" dataType="float">
			<Value value="-999" property="missing"/>
			<Value value="NaN" property="missing"/>
		</DataField>
		<DataField name="tgi1_25_34_5_active_min_day_diff" optype="continuous" dataType="float">
			<Value value="-999" property="missing"/>
			<Value value="NaN" property="missing"/>
		</DataField>
		<DataField name="tgi2_18_24_5_active_min_day_diff" optype="continuous" dataType="float">
			<Value value="-999" property="missing"/>
			<Value value="NaN" property="missing"/>
		</DataField>
		<DataField name="tgi1_45_54_0_install_first_max_diff" optype="continuous" dataType="float">
			<Value value="-999" property="missing"/>
			<Value value="NaN" property="missing"/>
		</DataField>
		<DataField name="tgi2_55_0_active_max_day_diff" optype="continuous" dataType="float">
			<Value value="-999" property="missing"/>
			<Value value="NaN" property="missing"/>
		</DataField>
		<DataField name="cate7011_993_18_install_trend" optype="continuous" dataType="float">
			<Value value="-999" property="missing"/>
			<Value value="NaN" property="missing"/>
		</DataField>
		<DataField name="tgi1_25_34_0_active_min_day_diff" optype="continuous" dataType="float">
			<Value value="-999" property="missing"/>
			<Value value="NaN" property="missing"/>
		</DataField>
		<DataField name="cate7006_001_12" optype="continuous" dataType="float">
			<Value value="-999" property="missing"/>
			<Value value="NaN" property="missing"/>
		</DataField>
		<DataField name="tgi1_25_34_1_18_install_trend" optype="continuous" dataType="float">
			<Value value="-999" property="missing"/>
			<Value value="NaN" property="missing"/>
		</DataField>
		<DataField name="cate7010_001_35_44_install_trend" optype="continuous" dataType="float">
			<Value value="-999" property="missing"/>
			<Value value="NaN" property="missing"/>
		</DataField>
		<DataField name="tgi2_18_24_4_12m_ratio" optype="continuous" dataType="float">
			<Value value="-999" property="missing"/>
			<Value value="NaN" property="missing"/>
		</DataField>
		<DataField name="cate7019_120_18_install_trend" optype="continuous" dataType="float">
			<Value value="-999" property="missing"/>
			<Value value="NaN" property="missing"/>
		</DataField>
		<DataField name="cate7006_001_12m_ratio" optype="continuous" dataType="float">
			<Value value="-999" property="missing"/>
			<Value value="NaN" property="missing"/>
		</DataField>
		<DataField name="cate7014_006_18_install_trend" optype="continuous" dataType="float">
			<Value value="-999" property="missing"/>
			<Value value="NaN" property="missing"/>
		</DataField>
		<DataField name="cate7019_133_18_24_install_trend" optype="continuous" dataType="float">
			<Value value="-999" property="missing"/>
			<Value value="NaN" property="missing"/>
		</DataField>
		<DataField name="tgi2_35_44_5_12m_ratio" optype="continuous" dataType="float">
			<Value value="-999" property="missing"/>
			<Value value="NaN" property="missing"/>
		</DataField>
		<DataField name="tgi2_25_34_5_12m_ratio" optype="continuous" dataType="float">
			<Value value="-999" property="missing"/>
			<Value value="NaN" property="missing"/>
		</DataField>
		<DataField name="cate7018_003_18_24_install_trend" optype="continuous" dataType="float">
			<Value value="-999" property="missing"/>
			<Value value="NaN" property="missing"/>
		</DataField>
		<DataField name="fin_31_35_44_install_trend" optype="continuous" dataType="float">
			<Value value="-999" property="missing"/>
			<Value value="NaN" property="missing"/>
		</DataField>
		<DataField name="tgi2_35_44_4_12m_ratio" optype="continuous" dataType="float">
			<Value value="-999" property="missing"/>
			<Value value="NaN" property="missing"/>
		</DataField>
		<DataField name="topic_3" optype="continuous" dataType="float">
			<Value value="-999" property="missing"/>
			<Value value="NaN" property="missing"/>
		</DataField>
		<DataField name="tgi2_55_2_12m_ratio" optype="continuous" dataType="float">
			<Value value="-999" property="missing"/>
			<Value value="NaN" property="missing"/>
		</DataField>
		<DataField name="tgi1_18_6_12m_ratio" optype="continuous" dataType="float">
			<Value value="-999" property="missing"/>
			<Value value="NaN" property="missing"/>
		</DataField>
		<DataField name="fin_46_6mv12m" optype="continuous" dataType="float">
			<Value value="-999" property="missing"/>
			<Value value="NaN" property="missing"/>
		</DataField>
		<DataField name="fin_25_55_install_trend" optype="continuous" dataType="float">
			<Value value="-999" property="missing"/>
			<Value value="NaN" property="missing"/>
		</DataField>
		<DataField name="topic_0" optype="continuous" dataType="float">
			<Value value="-999" property="missing"/>
			<Value value="NaN" property="missing"/>
		</DataField>
		<DataField name="tgi2_18_24_4_newins_first_max_diff" optype="continuous" dataType="float">
			<Value value="-999" property="missing"/>
			<Value value="NaN" property="missing"/>
		</DataField>
		<DataField name="cate2_6mv12m" optype="continuous" dataType="float">
			<Value value="-999" property="missing"/>
			<Value value="NaN" property="missing"/>
		</DataField>
		<DataField name="tgi1_18_0_active_max_day_diff" optype="continuous" dataType="float">
			<Value value="-999" property="missing"/>
			<Value value="NaN" property="missing"/>
		</DataField>
		<DataField name="cate7016_004_55_install_trend" optype="continuous" dataType="float">
			<Value value="-999" property="missing"/>
			<Value value="NaN" property="missing"/>
		</DataField>
		<DataField name="cate7003_008_55_install_trend" optype="continuous" dataType="float">
			<Value value="-999" property="missing"/>
			<Value value="NaN" property="missing"/>
		</DataField>
		<DataField name="tgi2_55_0_act_day_3m" optype="continuous" dataType="float">
			<Value value="-999" property="missing"/>
			<Value value="NaN" property="missing"/>
		</DataField>
		<DataField name="cate7012_002_install_trend" optype="continuous" dataType="float">
			<Value value="-999" property="missing"/>
			<Value value="NaN" property="missing"/>
		</DataField>
		<DataField name="cate7014_015_35_44_install_trend" optype="continuous" dataType="float">
			<Value value="-999" property="missing"/>
			<Value value="NaN" property="missing"/>
		</DataField>
		<DataField name="cate7_55_install_trend" optype="continuous" dataType="float">
			<Value value="-999" property="missing"/>
			<Value value="NaN" property="missing"/>
		</DataField>
		<DataField name="cate7003_008_18_install_trend" optype="continuous" dataType="float">
			<Value value="-999" property="missing"/>
			<Value value="NaN" property="missing"/>
		</DataField>
		<DataField name="cate7009_002_35_44_install_trend" optype="continuous" dataType="float">
			<Value value="-999" property="missing"/>
			<Value value="NaN" property="missing"/>
		</DataField>
		<DataField name="cate7012_013_6m_ratio" optype="continuous" dataType="float">
			<Value value="-999" property="missing"/>
			<Value value="NaN" property="missing"/>
		</DataField>
		<DataField name="cate7014_007_12m_cnt" optype="continuous" dataType="float">
			<Value value="-999" property="missing"/>
			<Value value="NaN" property="missing"/>
		</DataField>
		<DataField name="cate7015_006_12m_ratio" optype="continuous" dataType="float">
			<Value value="-999" property="missing"/>
			<Value value="NaN" property="missing"/>
		</DataField>
		<DataField name="tgi2_18_5_act_day_12m" optype="continuous" dataType="float">
			<Value value="-999" property="missing"/>
			<Value value="NaN" property="missing"/>
		</DataField>
		<DataField name="topic_13" optype="continuous" dataType="float">
			<Value value="-999" property="missing"/>
			<Value value="NaN" property="missing"/>
		</DataField>
		<DataField name="cate7006_001_install_first_min_diff" optype="continuous" dataType="float">
			<Value value="-999" property="missing"/>
			<Value value="NaN" property="missing"/>
		</DataField>
		<DataField name="cate7012_012_18_install_trend" optype="continuous" dataType="float">
			<Value value="-999" property="missing"/>
			<Value value="NaN" property="missing"/>
		</DataField>
		<DataField name="tgi2_18_4_12m_ratio" optype="continuous" dataType="float">
			<Value value="-999" property="missing"/>
			<Value value="NaN" property="missing"/>
		</DataField>
		<DataField name="cate7012_005_35_44_install_trend" optype="continuous" dataType="float">
			<Value value="-999" property="missing"/>
			<Value value="NaN" property="missing"/>
		</DataField>
		<DataField name="topic_7" optype="continuous" dataType="float">
			<Value value="-999" property="missing"/>
			<Value value="NaN" property="missing"/>
		</DataField>
		<DataField name="tgi2_55_4_12m_ratio" optype="continuous" dataType="float">
			<Value value="-999" property="missing"/>
			<Value value="NaN" property="missing"/>
		</DataField>
		<DataField name="cate7005_001_active_max_day_diff" optype="continuous" dataType="float">
			<Value value="-999" property="missing"/>
			<Value value="NaN" property="missing"/>
		</DataField>
		<DataField name="cate7008_008_18_install_trend" optype="continuous" dataType="float">
			<Value value="-999" property="missing"/>
			<Value value="NaN" property="missing"/>
		</DataField>
		<DataField name="cate7015_015_25_34_install_trend" optype="continuous" dataType="float">
			<Value value="-999" property="missing"/>
			<Value value="NaN" property="missing"/>
		</DataField>
		<DataField name="tgi2_25_34_4_12m_ratio" optype="continuous" dataType="float">
			<Value value="-999" property="missing"/>
			<Value value="NaN" property="missing"/>
		</DataField>
		<DataField name="tgi2_55_3_12m_ratio" optype="continuous" dataType="float">
			<Value value="-999" property="missing"/>
			<Value value="NaN" property="missing"/>
		</DataField>
		<DataField name="tgi2_18_1_12m_ratio" optype="continuous" dataType="float">
			<Value value="-999" property="missing"/>
			<Value value="NaN" property="missing"/>
		</DataField>
		<DataField name="tgi2_18_2_12m_cnt" optype="continuous" dataType="float">
			<Value value="-999" property="missing"/>
			<Value value="NaN" property="missing"/>
		</DataField>
		<DataField name="cate7011_991_18_24_install_trend" optype="continuous" dataType="float">
			<Value value="-999" property="missing"/>
			<Value value="NaN" property="missing"/>
		</DataField>
		<DataField name="cate7016_002_12m_ratio" optype="continuous" dataType="float">
			<Value value="-999" property="missing"/>
			<Value value="NaN" property="missing"/>
		</DataField>
		<DataField name="cate7005_003_25_34_install_trend" optype="continuous" dataType="float">
			<Value value="-999" property="missing"/>
			<Value value="NaN" property="missing"/>
		</DataField>
		<DataField name="fin_31_install_trend" optype="continuous" dataType="float">
			<Value value="-999" property="missing"/>
			<Value value="NaN" property="missing"/>
		</DataField>
	</DataDictionary>
	<MiningModel functionName="classification" algorithmName="XGBoost (GBTree)" x-mathContext="float">
		<MiningSchema>
			<MiningField name="_target" usageType="target"/>
			<MiningField name="tgi1_18_24_6_12m_cnt"/>
			<MiningField name="cate7008_007_install_trend"/>
			<MiningField name="cate2_active_min_day_diff"/>
			<MiningField name="tgi2_18_24_0_12m_ratio"/>
			<MiningField name="tgi1_18_24_6_6m_cnt"/>
			<MiningField name="cate7016_003_12m_ratio"/>
			<MiningField name="cate7017_002_55_install_trend"/>
			<MiningField name="cate7005_001_install_trend"/>
			<MiningField name="tgi1_18_0_12m_ratio"/>
			<MiningField name="cate7011_998_active_max_day_diff"/>
			<MiningField name="cate7017_001_55_install_trend"/>
			<MiningField name="cate7012_009_18_install_trend"/>
			<MiningField name="cate7016_003_18_24_install_trend"/>
			<MiningField name="cate7014_014_45_54_install_trend"/>
			<MiningField name="tgi2_35_44_6_55_install_trend"/>
			<MiningField name="fin_46_active_max_day_diff"/>
			<MiningField name="cate7010_006_55_install_trend"/>
			<MiningField name="tgi2_35_44_6_active_min_day_diff"/>
			<MiningField name="tgi2_45_54_0_12m_cnt"/>
			<MiningField name="tgi1_35_44_1_12m_ratio"/>
			<MiningField name="cate23_install_trend"/>
			<MiningField name="cate5_55_install_trend"/>
			<MiningField name="tgi1_35_44_5_active_max_day_diff"/>
			<MiningField name="tgi1_45_54_0_active_min_day_diff"/>
			<MiningField name="tgi2_18_7_12m_ratio"/>
			<MiningField name="cate7001_003_12m_ratio"/>
			<MiningField name="tgi1_18_0_6m_ratio"/>
			<MiningField name="tgi1_35_44_5_12"/>
			<MiningField name="tgi2_18_5_12m_ratio"/>
			<MiningField name="cate10_18_24_install_trend"/>
			<MiningField name="cate7010_005_18_install_trend"/>
			<MiningField name="cate7012_008_18_24_install_trend"/>
			<MiningField name="tgi1_35_44_0_12m_cnt"/>
			<MiningField name="cate7001_003_6m_ratio"/>
			<MiningField name="tgi1_18_0_3m_ratio"/>
			<MiningField name="cate7019_122_12m_cnt"/>
			<MiningField name="tgi1_18_0_install_first_max_diff"/>
			<MiningField name="cate7011_998_55_install_trend"/>
			<MiningField name="tgi2_18_7_12"/>
			<MiningField name="cate7014_016_55_install_trend"/>
			<MiningField name="tgi1_25_34_5_active_min_day_diff"/>
			<MiningField name="tgi2_18_24_5_active_min_day_diff"/>
			<MiningField name="tgi1_45_54_0_install_first_max_diff"/>
			<MiningField name="tgi2_55_0_active_max_day_diff"/>
			<MiningField name="cate7011_993_18_install_trend"/>
			<MiningField name="tgi1_25_34_0_active_min_day_diff"/>
			<MiningField name="cate7006_001_12"/>
			<MiningField name="tgi1_25_34_1_18_install_trend"/>
			<MiningField name="cate7010_001_35_44_install_trend"/>
			<MiningField name="tgi2_18_24_4_12m_ratio"/>
			<MiningField name="cate7019_120_18_install_trend"/>
			<MiningField name="cate7006_001_12m_ratio"/>
			<MiningField name="cate7014_006_18_install_trend"/>
			<MiningField name="cate7019_133_18_24_install_trend"/>
			<MiningField name="tgi2_35_44_5_12m_ratio"/>
			<MiningField name="tgi2_25_34_5_12m_ratio"/>
			<MiningField name="cate7018_003_18_24_install_trend"/>
			<MiningField name="fin_31_35_44_install_trend"/>
			<MiningField name="tgi2_35_44_4_12m_ratio"/>
			<MiningField name="topic_3"/>
			<MiningField name="tgi2_55_2_12m_ratio"/>
			<MiningField name="tgi1_18_6_12m_ratio"/>
			<MiningField name="fin_46_6mv12m"/>
			<MiningField name="fin_25_55_install_trend"/>
			<MiningField name="topic_0"/>
			<MiningField name="tgi2_18_24_4_newins_first_max_diff"/>
			<MiningField name="cate2_6mv12m"/>
			<MiningField name="tgi1_18_0_active_max_day_diff"/>
			<MiningField name="cate7016_004_55_install_trend"/>
			<MiningField name="cate7003_008_55_install_trend"/>
			<MiningField name="tgi2_55_0_act_day_3m"/>
			<MiningField name="cate7012_002_install_trend"/>
			<MiningField name="cate7014_015_35_44_install_trend"/>
			<MiningField name="cate7_55_install_trend"/>
			<MiningField name="cate7003_008_18_install_trend"/>
			<MiningField name="cate7009_002_35_44_install_trend"/>
			<MiningField name="cate7012_013_6m_ratio"/>
			<MiningField name="cate7014_007_12m_cnt"/>
			<MiningField name="cate7015_006_12m_ratio"/>
			<MiningField name="tgi2_18_5_act_day_12m"/>
			<MiningField name="topic_13"/>
			<MiningField name="cate7006_001_install_first_min_diff"/>
			<MiningField name="cate7012_012_18_install_trend"/>
			<MiningField name="tgi2_18_4_12m_ratio"/>
			<MiningField name="cate7012_005_35_44_install_trend"/>
			<MiningField name="topic_7"/>
			<MiningField name="tgi2_55_4_12m_ratio"/>
			<MiningField name="cate7005_001_active_max_day_diff"/>
			<MiningField name="cate7008_008_18_install_trend"/>
			<MiningField name="cate7015_015_25_34_install_trend"/>
			<MiningField name="tgi2_25_34_4_12m_ratio"/>
			<MiningField name="tgi2_55_3_12m_ratio"/>
			<MiningField name="tgi2_18_1_12m_ratio"/>
			<MiningField name="tgi2_18_2_12m_cnt"/>
			<MiningField name="cate7011_991_18_24_install_trend"/>
			<MiningField name="cate7016_002_12m_ratio"/>
			<MiningField name="cate7005_003_25_34_install_trend"/>
			<MiningField name="fin_31_install_trend"/>
		</MiningSchema>
		<Segmentation multipleModelMethod="modelChain" missingPredictionTreatment="returnMissing">
			<Segment id="1">
				<True/>
				<MiningModel functionName="regression" x-mathContext="float">
					<MiningSchema>
						<MiningField name="tgi1_18_24_6_12m_cnt"/>
						<MiningField name="cate7008_007_install_trend"/>
						<MiningField name="cate2_active_min_day_diff"/>
						<MiningField name="tgi2_18_24_0_12m_ratio"/>
						<MiningField name="tgi1_18_24_6_6m_cnt"/>
						<MiningField name="cate7016_003_12m_ratio"/>
						<MiningField name="cate7017_002_55_install_trend"/>
						<MiningField name="cate7005_001_install_trend"/>
						<MiningField name="tgi1_18_0_12m_ratio"/>
						<MiningField name="cate7011_998_active_max_day_diff"/>
						<MiningField name="cate7017_001_55_install_trend"/>
						<MiningField name="cate7012_009_18_install_trend"/>
						<MiningField name="cate7016_003_18_24_install_trend"/>
						<MiningField name="cate7014_014_45_54_install_trend"/>
						<MiningField name="tgi2_35_44_6_55_install_trend"/>
						<MiningField name="fin_46_active_max_day_diff"/>
						<MiningField name="cate7010_006_55_install_trend"/>
						<MiningField name="tgi2_35_44_6_active_min_day_diff"/>
						<MiningField name="tgi2_45_54_0_12m_cnt"/>
						<MiningField name="tgi1_35_44_1_12m_ratio"/>
						<MiningField name="cate23_install_trend"/>
						<MiningField name="cate5_55_install_trend"/>
						<MiningField name="tgi1_35_44_5_active_max_day_diff"/>
						<MiningField name="tgi1_45_54_0_active_min_day_diff"/>
						<MiningField name="tgi2_18_7_12m_ratio"/>
						<MiningField name="cate7001_003_12m_ratio"/>
						<MiningField name="tgi1_18_0_6m_ratio"/>
						<MiningField name="tgi1_35_44_5_12"/>
						<MiningField name="tgi2_18_5_12m_ratio"/>
						<MiningField name="cate10_18_24_install_trend"/>
						<MiningField name="cate7010_005_18_install_trend"/>
						<MiningField name="cate7012_008_18_24_install_trend"/>
						<MiningField name="tgi1_35_44_0_12m_cnt"/>
						<MiningField name="cate7001_003_6m_ratio"/>
						<MiningField name="tgi1_18_0_3m_ratio"/>
						<MiningField name="cate7019_122_12m_cnt"/>
						<MiningField name="tgi1_18_0_install_first_max_diff"/>
						<MiningField name="cate7011_998_55_install_trend"/>
						<MiningField name="tgi2_18_7_12"/>
						<MiningField name="cate7014_016_55_install_trend"/>
						<MiningField name="tgi1_25_34_5_active_min_day_diff"/>
						<MiningField name="tgi2_18_24_5_active_min_day_diff"/>
						<MiningField name="tgi1_45_54_0_install_first_max_diff"/>
						<MiningField name="tgi2_55_0_active_max_day_diff"/>
						<MiningField name="cate7011_993_18_install_trend"/>
						<MiningField name="tgi1_25_34_0_active_min_day_diff"/>
						<MiningField name="cate7006_001_12"/>
						<MiningField name="tgi1_25_34_1_18_install_trend"/>
						<MiningField name="cate7010_001_35_44_install_trend"/>
						<MiningField name="tgi2_18_24_4_12m_ratio"/>
						<MiningField name="cate7019_120_18_install_trend"/>
						<MiningField name="cate7006_001_12m_ratio"/>
						<MiningField name="cate7014_006_18_install_trend"/>
						<MiningField name="cate7019_133_18_24_install_trend"/>
						<MiningField name="tgi2_35_44_5_12m_ratio"/>
						<MiningField name="tgi2_25_34_5_12m_ratio"/>
						<MiningField name="cate7018_003_18_24_install_trend"/>
						<MiningField name="fin_31_35_44_install_trend"/>
						<MiningField name="tgi2_35_44_4_12m_ratio"/>
						<MiningField name="topic_3"/>
						<MiningField name="tgi2_55_2_12m_ratio"/>
						<MiningField name="tgi1_18_6_12m_ratio"/>
						<MiningField name="fin_46_6mv12m"/>
						<MiningField name="fin_25_55_install_trend"/>
						<MiningField name="topic_0"/>
						<MiningField name="tgi2_18_24_4_newins_first_max_diff"/>
						<MiningField name="cate2_6mv12m"/>
						<MiningField name="tgi1_18_0_active_max_day_diff"/>
						<MiningField name="cate7016_004_55_install_trend"/>
						<MiningField name="cate7003_008_55_install_trend"/>
						<MiningField name="tgi2_55_0_act_day_3m"/>
						<MiningField name="cate7012_002_install_trend"/>
						<MiningField name="cate7014_015_35_44_install_trend"/>
						<MiningField name="cate7_55_install_trend"/>
						<MiningField name="cate7003_008_18_install_trend"/>
						<MiningField name="cate7009_002_35_44_install_trend"/>
						<MiningField name="cate7012_013_6m_ratio"/>
						<MiningField name="cate7014_007_12m_cnt"/>
						<MiningField name="cate7015_006_12m_ratio"/>
						<MiningField name="tgi2_18_5_act_day_12m"/>
						<MiningField name="topic_13"/>
						<MiningField name="cate7006_001_install_first_min_diff"/>
						<MiningField name="cate7012_012_18_install_trend"/>
						<MiningField name="tgi2_18_4_12m_ratio"/>
						<MiningField name="cate7012_005_35_44_install_trend"/>
						<MiningField name="topic_7"/>
						<MiningField name="tgi2_55_4_12m_ratio"/>
						<MiningField name="cate7005_001_active_max_day_diff"/>
						<MiningField name="cate7008_008_18_install_trend"/>
						<MiningField name="cate7015_015_25_34_install_trend"/>
						<MiningField name="tgi2_25_34_4_12m_ratio"/>
						<MiningField name="tgi2_55_3_12m_ratio"/>
						<MiningField name="tgi2_18_1_12m_ratio"/>
						<MiningField name="tgi2_18_2_12m_cnt"/>
						<MiningField name="cate7011_991_18_24_install_trend"/>
						<MiningField name="cate7016_002_12m_ratio"/>
						<MiningField name="cate7005_003_25_34_install_trend"/>
						<MiningField name="fin_31_install_trend"/>
					</MiningSchema>
					<Output>
						<OutputField name="xgbValue" optype="continuous" dataType="float" isFinalResult="false"/>
					</Output>
					<Segmentation multipleModelMethod="sum">
						<Segment id="1">
							<True/>
							<TreeModel functionName="regression" noTrueChildStrategy="returnLastPrediction" x-mathContext="float">
								<MiningSchema>
									<MiningField name="tgi1_18_24_6_12m_cnt"/>
									<MiningField name="cate7008_007_install_trend"/>
									<MiningField name="cate2_active_min_day_diff"/>
									<MiningField name="tgi2_18_24_0_12m_ratio"/>
									<MiningField name="cate7016_003_12m_ratio"/>
									<MiningField name="cate7005_001_install_trend"/>
									<MiningField name="tgi1_18_0_12m_ratio"/>
									<MiningField name="cate7016_003_18_24_install_trend"/>
									<MiningField name="cate23_install_trend"/>
								</MiningSchema>
								<Node score="0.012583692">
									<True/>
									<Node score="0.24132378">
										<SimplePredicate field="tgi1_18_24_6_12m_cnt" operator="greaterOrEqual" value="2.5"/>
										<Node score="-0.017331662">
											<SimplePredicate field="cate2_active_min_day_diff" operator="greaterOrEqual" value="-97.0"/>
											<Node score="0.51204234">
												<SimplePredicate field="tgi1_18_0_12m_ratio" operator="greaterOrEqual" value="0.001915"/>
												<Node score="-0.0">
													<SimplePredicate field="tgi2_18_24_0_12m_ratio" operator="greaterOrEqual" value="0.009895001"/>
												</Node>
											</Node>
											<Node score="0.07959287">
												<SimplePredicate field="cate23_install_trend" operator="greaterOrEqual" value="0.036862344"/>
											</Node>
										</Node>
										<Node score="-0.10180268">
											<SimplePredicate field="cate7016_003_18_24_install_trend" operator="lessThan" value="-5.1081483E-5"/>
										</Node>
										<Node score="-0.01617585">
											<SimplePredicate field="cate23_install_trend" operator="lessThan" value="0.025974795"/>
										</Node>
									</Node>
									<Node score="-0.47425053">
										<SimplePredicate field="cate7008_007_install_trend" operator="lessThan" value="0.06247551"/>
										<Node score="-0.12431852">
											<SimplePredicate field="cate7005_001_install_trend" operator="lessThan" value="0.0155376475"/>
											<Node score="-0.33822733">
												<SimplePredicate field="tgi2_18_24_0_12m_ratio" operator="greaterOrEqual" value="0.0067614997"/>
											</Node>
										</Node>
									</Node>
									<Node score="0.29783952">
										<SimplePredicate field="cate7016_003_12m_ratio" operator="greaterOrEqual" value="4.835E-4"/>
										<Node score="-0.0">
											<SimplePredicate field="tgi2_18_24_0_12m_ratio" operator="greaterOrEqual" value="0.010263"/>
										</Node>
									</Node>
									<Node score="-0.15614377">
										<SimplePredicate field="cate23_install_trend" operator="lessThan" value="0.019039333"/>
									</Node>
								</Node>
							</TreeModel>
						</Segment>
						<Segment id="2">
							<True/>
							<TreeModel functionName="regression" noTrueChildStrategy="returnLastPrediction" x-mathContext="float">
								<MiningSchema>
									<MiningField name="tgi1_18_24_6_12m_cnt"/>
									<MiningField name="cate7008_007_install_trend"/>
									<MiningField name="cate2_active_min_day_diff"/>
									<MiningField name="tgi2_18_24_0_12m_ratio"/>
									<MiningField name="cate7016_003_12m_ratio"/>
									<MiningField name="tgi1_18_0_12m_ratio"/>
									<MiningField name="cate7017_001_55_install_trend"/>
									<MiningField name="cate7010_006_55_install_trend"/>
									<MiningField name="cate5_55_install_trend"/>
									<MiningField name="tgi2_18_7_12m_ratio"/>
									<MiningField name="tgi1_18_0_6m_ratio"/>
									<MiningField name="tgi1_25_34_1_18_install_trend"/>
								</MiningSchema>
								<Node score="0.04962503">
									<True/>
									<Node score="-0.21453612">
										<SimplePredicate field="cate7008_007_install_trend" operator="lessThan" value="0.08254233"/>
										<Node score="-0.0">
											<SimplePredicate field="tgi2_18_24_0_12m_ratio" operator="greaterOrEqual" value="0.007596"/>
											<Node score="-0.1104878">
												<SimplePredicate field="cate7010_006_55_install_trend" operator="lessThan" value="-0.06023185"/>
												<Node score="-0.261796">
													<SimplePredicate field="cate7008_007_install_trend" operator="lessThan" value="0.006059681"/>
												</Node>
											</Node>
											<Node score="-0.3633055">
												<SimplePredicate field="tgi1_25_34_1_18_install_trend" operator="lessThan" value="0.742842"/>
											</Node>
										</Node>
										<Node score="0.26586226">
											<SimplePredicate field="cate2_active_min_day_diff" operator="greaterOrEqual" value="-97.0"/>
											<Node score="-0.0">
												<SimplePredicate field="tgi1_18_0_6m_ratio" operator="lessThan" value="0.0027245"/>
											</Node>
										</Node>
										<Node score="-0.04953958">
											<SimplePredicate field="cate5_55_install_trend" operator="lessThan" value="0.13196819"/>
										</Node>
									</Node>
									<Node score="0.08405453">
										<SimplePredicate field="tgi1_18_24_6_12m_cnt" operator="greaterOrEqual" value="3.5"/>
										<Node score="0.39963508">
											<SimplePredicate field="tgi1_18_0_12m_ratio" operator="greaterOrEqual" value="0.0025995001"/>
										</Node>
										<Node score="-0.014065004">
											<SimplePredicate field="tgi2_18_7_12m_ratio" operator="greaterOrEqual" value="0.0022295"/>
										</Node>
									</Node>
									<Node score="0.25721762">
										<SimplePredicate field="cate7016_003_12m_ratio" operator="greaterOrEqual" value="1.84E-4"/>
										<Node score="-0.0">
											<SimplePredicate field="cate7017_001_55_install_trend" operator="greaterOrEqual" value="0.09268111"/>
										</Node>
									</Node>
									<Node score="-0.13150288">
										<SimplePredicate field="tgi2_18_7_12m_ratio" operator="greaterOrEqual" value="0.003432"/>
									</Node>
								</Node>
							</TreeModel>
						</Segment>
						<Segment id="3">
							<True/>
							<TreeModel functionName="regression" noTrueChildStrategy="returnLastPrediction" x-mathContext="float">
								<MiningSchema>
									<MiningField name="tgi1_18_24_6_12m_cnt"/>
									<MiningField name="cate2_active_min_day_diff"/>
									<MiningField name="tgi2_18_24_0_12m_ratio"/>
									<MiningField name="cate7017_002_55_install_trend"/>
									<MiningField name="cate7011_998_active_max_day_diff"/>
									<MiningField name="cate7016_003_18_24_install_trend"/>
									<MiningField name="tgi2_35_44_6_55_install_trend"/>
									<MiningField name="tgi1_45_54_0_active_min_day_diff"/>
									<MiningField name="cate7001_003_12m_ratio"/>
									<MiningField name="tgi1_18_0_6m_ratio"/>
									<MiningField name="tgi2_18_5_12m_ratio"/>
									<MiningField name="tgi1_18_0_3m_ratio"/>
								</MiningSchema>
								<Node score="-0.1520276">
									<True/>
									<Node score="-0.21805231">
										<SimplePredicate field="tgi1_18_24_6_12m_cnt" operator="greaterOrEqual" value="1.5"/>
										<Node score="-0.0">
											<SimplePredicate field="tgi1_18_24_6_12m_cnt" operator="greaterOrEqual" value="4.5"/>
											<Node score="0.34150296">
												<SimplePredicate field="cate2_active_min_day_diff" operator="greaterOrEqual" value="-97.0"/>
												<Node score="-0.0">
													<SimplePredicate field="tgi1_18_0_3m_ratio" operator="lessThan" value="0.0018465"/>
												</Node>
											</Node>
										</Node>
										<Node score="0.21743114">
											<SimplePredicate field="cate7017_002_55_install_trend" operator="lessThan" value="0.16662312"/>
											<Node score="-0.026460946">
												<SimplePredicate field="tgi1_18_0_6m_ratio" operator="lessThan" value="0.0024985"/>
											</Node>
										</Node>
										<Node score="-0.0">
											<SimplePredicate field="tgi1_45_54_0_active_min_day_diff" operator="greaterOrEqual" value="-97.0"/>
										</Node>
									</Node>
									<Node score="-0.30794364">
										<SimplePredicate field="tgi2_18_24_0_12m_ratio" operator="greaterOrEqual" value="0.0094615"/>
										<Node score="-0.17355686">
											<SimplePredicate field="cate7016_003_18_24_install_trend" operator="greaterOrEqual" value="0.061923355"/>
											<Node score="-0.037417218">
												<SimplePredicate field="tgi2_35_44_6_55_install_trend" operator="lessThan" value="0.23901957"/>
											</Node>
										</Node>
										<Node score="-0.0">
											<SimplePredicate field="tgi2_18_5_12m_ratio" operator="greaterOrEqual" value="0.0155945"/>
										</Node>
									</Node>
									<Node score="-0.1769028">
										<SimplePredicate field="cate7011_998_active_max_day_diff" operator="greaterOrEqual" value="-97.0"/>
										<Node score="-0.04910996">
											<SimplePredicate field="cate7001_003_12m_ratio" operator="greaterOrEqual" value="0.0010164999"/>
										</Node>
									</Node>
									<Node score="0.10089115">
										<SimplePredicate field="tgi2_18_5_12m_ratio" operator="greaterOrEqual" value="0.002776"/>
									</Node>
								</Node>
							</TreeModel>
						</Segment>
						<Segment id="4">
							<True/>
							<TreeModel functionName="regression" noTrueChildStrategy="returnLastPrediction" x-mathContext="float">
								<MiningSchema>
									<MiningField name="cate7008_007_install_trend"/>
									<MiningField name="cate2_active_min_day_diff"/>
									<MiningField name="tgi2_18_24_0_12m_ratio"/>
									<MiningField name="cate7017_002_55_install_trend"/>
									<MiningField name="tgi1_18_0_12m_ratio"/>
									<MiningField name="cate7011_998_active_max_day_diff"/>
									<MiningField name="cate7016_003_18_24_install_trend"/>
									<MiningField name="tgi2_45_54_0_12m_cnt"/>
									<MiningField name="cate23_install_trend"/>
									<MiningField name="tgi1_45_54_0_active_min_day_diff"/>
									<MiningField name="tgi2_18_7_12m_ratio"/>
									<MiningField name="tgi1_25_34_1_18_install_trend"/>
									<MiningField name="cate7018_003_18_24_install_trend"/>
								</MiningSchema>
								<Node score="0.136149">
									<True/>
									<Node score="-0.10752592">
										<SimplePredicate field="cate7008_007_install_trend" operator="lessThan" value="0.09875975"/>
										<Node score="-0.0032633157">
											<SimplePredicate field="cate7017_002_55_install_trend" operator="lessThan" value="0.1661269"/>
											<Node score="-0.0">
												<SimplePredicate field="cate2_active_min_day_diff" operator="greaterOrEqual" value="-97.0"/>
												<Node score="0.2282679">
													<SimplePredicate field="tgi1_18_0_12m_ratio" operator="greaterOrEqual" value="0.005455"/>
												</Node>
											</Node>
											<Node score="-0.13313602">
												<SimplePredicate field="tgi1_25_34_1_18_install_trend" operator="lessThan" value="0.6290228"/>
											</Node>
										</Node>
										<Node score="-0.267412">
											<SimplePredicate field="tgi1_25_34_1_18_install_trend" operator="lessThan" value="0.69480264"/>
											<Node score="-0.0">
												<SimplePredicate field="tgi2_45_54_0_12m_cnt" operator="greaterOrEqual" value="1.5"/>
											</Node>
										</Node>
										<Node score="0.0039981706">
											<SimplePredicate field="tgi1_45_54_0_active_min_day_diff" operator="greaterOrEqual" value="-97.0"/>
										</Node>
									</Node>
									<Node score="0.2697811">
										<SimplePredicate field="tgi1_18_0_12m_ratio" operator="greaterOrEqual" value="0.003412"/>
										<Node score="-0.2113387">
											<SimplePredicate field="cate7016_003_18_24_install_trend" operator="lessThan" value="-0.006084484"/>
											<Node score="-0.0">
												<SimplePredicate field="cate7018_003_18_24_install_trend" operator="lessThan" value="0.18824509"/>
											</Node>
										</Node>
										<Node score="0.05152151">
											<SimplePredicate field="tgi2_18_24_0_12m_ratio" operator="greaterOrEqual" value="0.0074429996"/>
										</Node>
									</Node>
									<Node score="-0.0">
										<SimplePredicate field="cate23_install_trend" operator="lessThan" value="0.04042484"/>
										<Node score="-0.15537639">
											<SimplePredicate field="cate7011_998_active_max_day_diff" operator="greaterOrEqual" value="-97.0"/>
										</Node>
									</Node>
									<Node score="-0.0">
										<SimplePredicate field="tgi2_18_7_12m_ratio" operator="greaterOrEqual" value="0.001719"/>
									</Node>
								</Node>
							</TreeModel>
						</Segment>
						<Segment id="5">
							<True/>
							<TreeModel functionName="regression" noTrueChildStrategy="returnLastPrediction" x-mathContext="float">
								<MiningSchema>
									<MiningField name="tgi1_18_24_6_12m_cnt"/>
									<MiningField name="tgi2_18_24_0_12m_ratio"/>
									<MiningField name="tgi1_18_0_12m_ratio"/>
									<MiningField name="cate7017_001_55_install_trend"/>
									<MiningField name="cate7014_014_45_54_install_trend"/>
									<MiningField name="cate23_install_trend"/>
									<MiningField name="tgi2_18_5_12m_ratio"/>
									<MiningField name="tgi1_18_0_install_first_max_diff"/>
									<MiningField name="cate7011_998_55_install_trend"/>
									<MiningField name="cate7014_016_55_install_trend"/>
									<MiningField name="cate7018_003_18_24_install_trend"/>
									<MiningField name="fin_31_35_44_install_trend"/>
									<MiningField name="tgi1_18_6_12m_ratio"/>
								</MiningSchema>
								<Node score="-0.09002666">
									<True/>
									<Node score="-0.0">
										<SimplePredicate field="tgi1_18_24_6_12m_cnt" operator="greaterOrEqual" value="3.5"/>
										<Node score="0.26833075">
											<SimplePredicate field="tgi1_18_0_12m_ratio" operator="greaterOrEqual" value="0.0049334997"/>
											<Node score="-0.0">
												<SimplePredicate field="cate7018_003_18_24_install_trend" operator="greaterOrEqual" value="0.24609894"/>
											</Node>
											<Node score="-0.0">
												<SimplePredicate field="tgi2_18_24_0_12m_ratio" operator="greaterOrEqual" value="0.008897"/>
											</Node>
										</Node>
										<Node score="-0.034335777">
											<SimplePredicate field="cate23_install_trend" operator="lessThan" value="0.019021943"/>
										</Node>
										<Node score="0.14526908">
											<SimplePredicate field="tgi1_18_0_install_first_max_diff" operator="greaterOrEqual" value="-49.0"/>
										</Node>
									</Node>
									<Node score="-0.24648">
										<SimplePredicate field="cate7017_001_55_install_trend" operator="greaterOrEqual" value="0.08039582"/>
										<Node score="-0.14927268">
											<SimplePredicate field="cate7014_016_55_install_trend" operator="lessThan" value="0.22370471"/>
											<Node score="0.006410372">
												<SimplePredicate field="tgi2_18_5_12m_ratio" operator="greaterOrEqual" value="0.0048049996"/>
											</Node>
										</Node>
										<Node score="-0.0">
											<SimplePredicate field="tgi1_18_6_12m_ratio" operator="greaterOrEqual" value="0.0042715"/>
										</Node>
									</Node>
									<Node score="0.106726594">
										<SimplePredicate field="cate7014_014_45_54_install_trend" operator="greaterOrEqual" value="0.12011352"/>
										<Node score="-0.040609617">
											<SimplePredicate field="fin_31_35_44_install_trend" operator="lessThan" value="-0.025360424"/>
										</Node>
									</Node>
									<Node score="0.028162202">
										<SimplePredicate field="cate7011_998_55_install_trend" operator="lessThan" value="0.03539276"/>
									</Node>
								</Node>
							</TreeModel>
						</Segment>
						<Segment id="6">
							<True/>
							<TreeModel functionName="regression" noTrueChildStrategy="returnLastPrediction" x-mathContext="float">
								<MiningSchema>
									<MiningField name="tgi2_18_24_0_12m_ratio"/>
									<MiningField name="cate7017_002_55_install_trend"/>
									<MiningField name="tgi1_18_0_12m_ratio"/>
									<MiningField name="cate7016_003_18_24_install_trend"/>
									<MiningField name="tgi2_35_44_6_55_install_trend"/>
									<MiningField name="fin_46_active_max_day_diff"/>
									<MiningField name="tgi2_45_54_0_12m_cnt"/>
									<MiningField name="cate23_install_trend"/>
									<MiningField name="cate5_55_install_trend"/>
									<MiningField name="tgi2_18_5_12m_ratio"/>
									<MiningField name="cate7019_120_18_install_trend"/>
									<MiningField name="tgi2_18_1_12m_ratio"/>
								</MiningSchema>
								<Node score="-0.0">
									<True/>
									<Node score="-0.1954116">
										<SimplePredicate field="tgi2_18_24_0_12m_ratio" operator="greaterOrEqual" value="0.005812"/>
										<Node score="-0.119693704">
											<SimplePredicate field="cate7016_003_18_24_install_trend" operator="greaterOrEqual" value="0.041181237"/>
											<Node score="-0.024037914">
												<SimplePredicate field="tgi2_35_44_6_55_install_trend" operator="lessThan" value="0.2559159"/>
												<Node score="0.10256176">
													<SimplePredicate field="fin_46_active_max_day_diff" operator="greaterOrEqual" value="-97.0"/>
												</Node>
											</Node>
											<Node score="-0.026692798">
												<SimplePredicate field="tgi2_18_5_12m_ratio" operator="greaterOrEqual" value="0.0043365"/>
											</Node>
										</Node>
										<Node score="-0.0">
											<SimplePredicate field="tgi2_45_54_0_12m_cnt" operator="greaterOrEqual" value="1.5"/>
										</Node>
										<Node score="-0.0">
											<SimplePredicate field="cate5_55_install_trend" operator="lessThan" value="0.0043709413"/>
										</Node>
									</Node>
									<Node score="-0.09287019">
										<SimplePredicate field="tgi1_18_0_12m_ratio" operator="greaterOrEqual" value="0.0030105"/>
										<Node score="0.09522384">
											<SimplePredicate field="tgi2_45_54_0_12m_cnt" operator="greaterOrEqual" value="0.5"/>
											<Node score="0.2347984">
												<SimplePredicate field="tgi1_18_0_12m_ratio" operator="greaterOrEqual" value="0.005062"/>
											</Node>
										</Node>
										<Node score="0.08854472">
											<SimplePredicate field="cate7017_002_55_install_trend" operator="lessThan" value="0.16421902"/>
										</Node>
									</Node>
									<Node score="-0.11141195">
										<SimplePredicate field="cate23_install_trend" operator="lessThan" value="0.031899758"/>
										<Node score="-0.0">
											<SimplePredicate field="cate7019_120_18_install_trend" operator="lessThan" value="0.043667037"/>
										</Node>
									</Node>
									<Node score="0.089802265">
										<SimplePredicate field="tgi2_18_1_12m_ratio" operator="greaterOrEqual" value="0.0082765"/>
									</Node>
								</Node>
							</TreeModel>
						</Segment>
						<Segment id="7">
							<True/>
							<TreeModel functionName="regression" noTrueChildStrategy="returnLastPrediction" x-mathContext="float">
								<MiningSchema>
									<MiningField name="tgi1_18_24_6_12m_cnt"/>
									<MiningField name="cate2_active_min_day_diff"/>
									<MiningField name="cate7016_003_18_24_install_trend"/>
									<MiningField name="tgi2_45_54_0_12m_cnt"/>
									<MiningField name="tgi1_35_44_1_12m_ratio"/>
									<MiningField name="tgi2_18_7_12m_ratio"/>
									<MiningField name="tgi1_18_0_3m_ratio"/>
									<MiningField name="cate7011_998_55_install_trend"/>
									<MiningField name="cate7018_003_18_24_install_trend"/>
									<MiningField name="cate7012_002_install_trend"/>
								</MiningSchema>
								<Node score="-0.18537487">
									<True/>
									<Node score="-0.0">
										<SimplePredicate field="tgi1_18_24_6_12m_cnt" operator="greaterOrEqual" value="3.5"/>
										<Node score="0.03848361">
											<SimplePredicate field="tgi2_18_7_12m_ratio" operator="greaterOrEqual" value="0.0032604998"/>
											<Node score="-0.07204313">
												<SimplePredicate field="tgi1_18_0_3m_ratio" operator="lessThan" value="0.005454"/>
											</Node>
										</Node>
										<Node score="-0.0">
											<SimplePredicate field="cate2_active_min_day_diff" operator="greaterOrEqual" value="-97.0"/>
											<Node score="0.1973975">
												<SimplePredicate field="cate7018_003_18_24_install_trend" operator="lessThan" value="0.24177712"/>
											</Node>
										</Node>
									</Node>
									<Node score="-0.01954408">
										<SimplePredicate field="cate7016_003_18_24_install_trend" operator="greaterOrEqual" value="-0.0031465008"/>
										<Node score="-0.0397612">
											<SimplePredicate field="cate7011_998_55_install_trend" operator="lessThan" value="0.07970865"/>
											<Node score="0.084332764">
												<SimplePredicate field="tgi1_35_44_1_12m_ratio" operator="greaterOrEqual" value="0.006378"/>
											</Node>
										</Node>
										<Node score="-0.10618653">
											<SimplePredicate field="cate7016_003_18_24_install_trend" operator="lessThan" value="0.07315618"/>
										</Node>
									</Node>
									<Node score="-0.0">
										<SimplePredicate field="cate7012_002_install_trend" operator="lessThan" value="0.11855478"/>
									</Node>
									<Node score="-0.0">
										<SimplePredicate field="tgi2_45_54_0_12m_cnt" operator="greaterOrEqual" value="1.5"/>
									</Node>
								</Node>
							</TreeModel>
						</Segment>
						<Segment id="8">
							<True/>
							<TreeModel functionName="regression" noTrueChildStrategy="returnLastPrediction" x-mathContext="float">
								<MiningSchema>
									<MiningField name="cate2_active_min_day_diff"/>
									<MiningField name="cate7005_001_install_trend"/>
									<MiningField name="tgi1_18_0_12m_ratio"/>
									<MiningField name="cate7011_998_active_max_day_diff"/>
									<MiningField name="cate7016_003_18_24_install_trend"/>
									<MiningField name="tgi2_18_7_12m_ratio"/>
									<MiningField name="tgi1_18_0_6m_ratio"/>
									<MiningField name="tgi2_18_5_12m_ratio"/>
									<MiningField name="cate7010_005_18_install_trend"/>
									<MiningField name="cate7011_993_18_install_trend"/>
									<MiningField name="cate7018_003_18_24_install_trend"/>
									<MiningField name="tgi1_18_6_12m_ratio"/>
									<MiningField name="topic_0"/>
								</MiningSchema>
								<Node score="-0.016971298">
									<True/>
									<Node score="-0.0">
										<SimplePredicate field="cate2_active_min_day_diff" operator="greaterOrEqual" value="-97.0"/>
										<Node score="-0.054868627">
											<SimplePredicate field="cate7011_993_18_install_trend" operator="greaterOrEqual" value="0.21918917"/>
											<Node score="0.17182979">
												<SimplePredicate field="cate7018_003_18_24_install_trend" operator="lessThan" value="0.2680537"/>
												<Node score="-0.0">
													<SimplePredicate field="tgi1_18_0_6m_ratio" operator="lessThan" value="0.001436"/>
												</Node>
											</Node>
										</Node>
										<Node score="0.082710564">
											<SimplePredicate field="tgi1_18_0_12m_ratio" operator="greaterOrEqual" value="0.005234"/>
										</Node>
										<Node score="-0.17655504">
											<SimplePredicate field="tgi2_18_7_12m_ratio" operator="greaterOrEqual" value="0.0015945"/>
										</Node>
									</Node>
									<Node score="-0.034063198">
										<SimplePredicate field="cate7005_001_install_trend" operator="greaterOrEqual" value="0.017387848"/>
										<Node score="0.02495393">
											<SimplePredicate field="tgi2_18_5_12m_ratio" operator="greaterOrEqual" value="0.0047810003"/>
											<Node score="-0.065303825">
												<SimplePredicate field="cate7016_003_18_24_install_trend" operator="lessThan" value="0.0023731133"/>
											</Node>
										</Node>
										<Node score="-0.15755689">
											<SimplePredicate field="topic_0" operator="lessThan" value="0.05738338"/>
										</Node>
									</Node>
									<Node score="-0.102579445">
										<SimplePredicate field="cate7011_998_active_max_day_diff" operator="greaterOrEqual" value="-97.0"/>
										<Node score="-0.0075116754">
											<SimplePredicate field="cate7010_005_18_install_trend" operator="greaterOrEqual" value="-0.04558088"/>
										</Node>
									</Node>
									<Node score="0.07816066">
										<SimplePredicate field="tgi1_18_6_12m_ratio" operator="greaterOrEqual" value="9.725E-4"/>
									</Node>
								</Node>
							</TreeModel>
						</Segment>
						<Segment id="9">
							<True/>
							<TreeModel functionName="regression" noTrueChildStrategy="returnLastPrediction" x-mathContext="float">
								<MiningSchema>
									<MiningField name="tgi1_18_24_6_12m_cnt"/>
									<MiningField name="cate7016_003_12m_ratio"/>
									<MiningField name="tgi1_18_0_12m_ratio"/>
									<MiningField name="cate7017_001_55_install_trend"/>
									<MiningField name="tgi1_35_44_1_12m_ratio"/>
									<MiningField name="cate5_55_install_trend"/>
									<MiningField name="tgi1_35_44_5_active_max_day_diff"/>
									<MiningField name="tgi1_18_0_6m_ratio"/>
									<MiningField name="tgi1_18_0_install_first_max_diff"/>
								</MiningSchema>
								<Node score="-0.0">
									<True/>
									<Node score="0.1605976">
										<SimplePredicate field="tgi1_18_24_6_12m_cnt" operator="greaterOrEqual" value="5.5"/>
										<Node score="-0.0">
											<SimplePredicate field="tgi1_18_0_6m_ratio" operator="lessThan" value="0.0030885"/>
										</Node>
										<Node score="-0.0">
											<SimplePredicate field="tgi1_18_0_install_first_max_diff" operator="greaterOrEqual" value="233.5"/>
										</Node>
									</Node>
									<Node score="-0.14937308">
										<SimplePredicate field="tgi1_35_44_5_active_max_day_diff" operator="greaterOrEqual" value="-97.0"/>
										<Node score="-0.061495982">
											<SimplePredicate field="cate5_55_install_trend" operator="lessThan" value="0.16612554"/>
											<Node score="0.05302366">
												<SimplePredicate field="cate7016_003_12m_ratio" operator="greaterOrEqual" value="5.205E-4"/>
											</Node>
										</Node>
										<Node score="-0.0">
											<SimplePredicate field="cate7017_001_55_install_trend" operator="lessThan" value="0.013739468"/>
										</Node>
									</Node>
									<Node score="-0.008989586">
										<SimplePredicate field="tgi1_35_44_1_12m_ratio" operator="greaterOrEqual" value="0.005028"/>
										<Node score="0.07268443">
											<SimplePredicate field="tgi1_18_0_12m_ratio" operator="greaterOrEqual" value="0.001428"/>
										</Node>
									</Node>
									<Node score="-0.09330219">
										<SimplePredicate field="tgi1_18_0_12m_ratio" operator="greaterOrEqual" value="0.003481"/>
									</Node>
								</Node>
							</TreeModel>
						</Segment>
						<Segment id="10">
							<True/>
							<TreeModel functionName="regression" noTrueChildStrategy="returnLastPrediction" x-mathContext="float">
								<MiningSchema>
									<MiningField name="tgi2_18_24_0_12m_ratio"/>
									<MiningField name="cate7016_003_12m_ratio"/>
									<MiningField name="cate7005_001_install_trend"/>
									<MiningField name="cate7012_009_18_install_trend"/>
									<MiningField name="cate7016_003_18_24_install_trend"/>
									<MiningField name="cate5_55_install_trend"/>
									<MiningField name="tgi2_18_7_12m_ratio"/>
									<MiningField name="cate7001_003_12m_ratio"/>
									<MiningField name="tgi2_18_5_12m_ratio"/>
									<MiningField name="cate7014_016_55_install_trend"/>
									<MiningField name="tgi1_25_34_0_active_min_day_diff"/>
								</MiningSchema>
								<Node score="0.09572086">
									<True/>
									<Node score="-0.04940444">
										<SimplePredicate field="cate7016_003_12m_ratio" operator="greaterOrEqual" value="5.1499996E-4"/>
										<Node score="0.13907851">
											<SimplePredicate field="tgi1_25_34_0_active_min_day_diff" operator="greaterOrEqual" value="-97.0"/>
											<Node score="-0.0">
												<SimplePredicate field="tgi2_18_7_12m_ratio" operator="greaterOrEqual" value="0.0041845003"/>
											</Node>
											<Node score="-0.0">
												<SimplePredicate field="cate5_55_install_trend" operator="greaterOrEqual" value="0.185813"/>
											</Node>
										</Node>
										<Node score="0.030871326">
											<SimplePredicate field="cate7005_001_install_trend" operator="lessThan" value="0.0040967837"/>
										</Node>
									</Node>
									<Node score="-0.046847966">
										<SimplePredicate field="tgi2_18_24_0_12m_ratio" operator="greaterOrEqual" value="0.003262"/>
										<Node score="-0.13883531">
											<SimplePredicate field="cate7016_003_18_24_install_trend" operator="lessThan" value="0.011287856"/>
											<Node score="-0.049743887">
												<SimplePredicate field="cate7014_016_55_install_trend" operator="lessThan" value="0.25603667"/>
											</Node>
										</Node>
										<Node score="0.02358108">
											<SimplePredicate field="cate7001_003_12m_ratio" operator="greaterOrEqual" value="0.001863"/>
										</Node>
									</Node>
									<Node score="-0.05793163">
										<SimplePredicate field="tgi2_18_5_12m_ratio" operator="greaterOrEqual" value="0.0100529995"/>
										<Node score="0.050483763">
											<SimplePredicate field="cate7001_003_12m_ratio" operator="greaterOrEqual" value="0.002074"/>
										</Node>
									</Node>
									<Node score="-0.0">
										<SimplePredicate field="cate7012_009_18_install_trend" operator="lessThan" value="0.076857924"/>
									</Node>
								</Node>
							</TreeModel>
						</Segment>
						<Segment id="11">
							<True/>
							<TreeModel functionName="regression" noTrueChildStrategy="returnLastPrediction" x-mathContext="float">
								<MiningSchema>
									<MiningField name="cate7014_014_45_54_install_trend"/>
									<MiningField name="tgi2_35_44_6_active_min_day_diff"/>
									<MiningField name="cate10_18_24_install_trend"/>
									<MiningField name="cate7010_005_18_install_trend"/>
									<MiningField name="tgi2_55_0_active_max_day_diff"/>
									<MiningField name="cate7011_993_18_install_trend"/>
									<MiningField name="cate7018_003_18_24_install_trend"/>
									<MiningField name="tgi1_18_6_12m_ratio"/>
									<MiningField name="topic_0"/>
									<MiningField name="cate7_55_install_trend"/>
									<MiningField name="cate7003_008_18_install_trend"/>
									<MiningField name="topic_13"/>
									<MiningField name="cate7008_008_18_install_trend"/>
								</MiningSchema>
								<Node score="-0.0">
									<True/>
									<Node score="-0.0">
										<SimplePredicate field="cate10_18_24_install_trend" operator="lessThan" value="0.18510759"/>
										<Node score="-0.0">
											<SimplePredicate field="tgi2_35_44_6_active_min_day_diff" operator="greaterOrEqual" value="-97.0"/>
											<Node score="-0.12262612">
												<SimplePredicate field="cate7014_014_45_54_install_trend" operator="lessThan" value="0.20141742"/>
												<Node score="-0.0">
													<SimplePredicate field="topic_13" operator="lessThan" value="0.042804774"/>
												</Node>
											</Node>
										</Node>
										<Node score="0.02618041">
											<SimplePredicate field="tgi2_55_0_active_max_day_diff" operator="greaterOrEqual" value="-97.0"/>
											<Node score="-0.0492567">
												<SimplePredicate field="cate7010_005_18_install_trend" operator="lessThan" value="-0.09484333"/>
											</Node>
										</Node>
										<Node score="-0.09213504">
											<SimplePredicate field="topic_0" operator="lessThan" value="0.059669785"/>
										</Node>
									</Node>
									<Node score="-0.03613025">
										<SimplePredicate field="cate7003_008_18_install_trend" operator="lessThan" value="0.17740598"/>
										<Node score="0.131862">
											<SimplePredicate field="cate7018_003_18_24_install_trend" operator="lessThan" value="0.27253863"/>
											<Node score="-0.0">
												<SimplePredicate field="cate7011_993_18_install_trend" operator="lessThan" value="0.21888562"/>
											</Node>
										</Node>
									</Node>
									<Node score="-0.0">
										<SimplePredicate field="tgi1_18_6_12m_ratio" operator="greaterOrEqual" value="0.003211"/>
										<Node score="-0.08527383">
											<SimplePredicate field="cate7_55_install_trend" operator="lessThan" value="0.0068599433"/>
										</Node>
									</Node>
									<Node score="0.08181779">
										<SimplePredicate field="cate7008_008_18_install_trend" operator="lessThan" value="0.0053365435"/>
									</Node>
								</Node>
							</TreeModel>
						</Segment>
						<Segment id="12">
							<True/>
							<TreeModel functionName="regression" noTrueChildStrategy="returnLastPrediction" x-mathContext="float">
								<MiningSchema>
									<MiningField name="fin_46_active_max_day_diff"/>
									<MiningField name="tgi1_35_44_1_12m_ratio"/>
									<MiningField name="cate23_install_trend"/>
									<MiningField name="tgi1_18_0_6m_ratio"/>
									<MiningField name="cate7006_001_12m_ratio"/>
									<MiningField name="cate7018_003_18_24_install_trend"/>
									<MiningField name="tgi2_35_44_4_12m_ratio"/>
									<MiningField name="cate7016_004_55_install_trend"/>
									<MiningField name="tgi2_55_0_act_day_3m"/>
									<MiningField name="cate7_55_install_trend"/>
									<MiningField name="topic_13"/>
									<MiningField name="topic_7"/>
									<MiningField name="tgi2_55_4_12m_ratio"/>
									<MiningField name="fin_31_install_trend"/>
								</MiningSchema>
								<Node score="0.030151363">
									<True/>
									<Node score="-0.0">
										<SimplePredicate field="tgi2_35_44_4_12m_ratio" operator="greaterOrEqual" value="0.016338501"/>
										<Node score="-0.08678144">
											<SimplePredicate field="cate7006_001_12m_ratio" operator="greaterOrEqual" value="0.002211"/>
											<Node score="-0.0030328399">
												<SimplePredicate field="cate7_55_install_trend" operator="lessThan" value="0.17373195"/>
												<Node score="0.046932317">
													<SimplePredicate field="tgi1_35_44_1_12m_ratio" operator="greaterOrEqual" value="0.0058925003"/>
												</Node>
											</Node>
											<Node score="-0.0">
												<SimplePredicate field="topic_13" operator="lessThan" value="0.041517965"/>
											</Node>
										</Node>
										<Node score="-0.11864669">
											<SimplePredicate field="tgi2_55_4_12m_ratio" operator="greaterOrEqual" value="0.0069315"/>
											<Node score="-0.0">
												<SimplePredicate field="cate7016_004_55_install_trend" operator="lessThan" value="-0.060640663"/>
											</Node>
										</Node>
									</Node>
									<Node score="-0.09193936">
										<SimplePredicate field="fin_46_active_max_day_diff" operator="greaterOrEqual" value="-97.0"/>
										<Node score="0.079485096">
											<SimplePredicate field="cate7018_003_18_24_install_trend" operator="lessThan" value="0.23439145"/>
											<Node score="0.004005094">
												<SimplePredicate field="cate23_install_trend" operator="lessThan" value="0.025824532"/>
											</Node>
										</Node>
										<Node score="-0.0">
											<SimplePredicate field="fin_31_install_trend" operator="lessThan" value="-0.18987828"/>
										</Node>
									</Node>
									<Node score="-0.0">
										<SimplePredicate field="tgi2_55_0_act_day_3m" operator="greaterOrEqual" value="0.5"/>
										<Node score="-0.11892522">
											<SimplePredicate field="tgi1_18_0_6m_ratio" operator="lessThan" value="0.0055"/>
										</Node>
									</Node>
									<Node score="-0.027478524">
										<SimplePredicate field="topic_7" operator="greaterOrEqual" value="0.04763862"/>
									</Node>
								</Node>
							</TreeModel>
						</Segment>
						<Segment id="13">
							<True/>
							<TreeModel functionName="regression" noTrueChildStrategy="returnLastPrediction" x-mathContext="float">
								<MiningSchema>
									<MiningField name="cate7016_003_18_24_install_trend"/>
									<MiningField name="tgi2_45_54_0_12m_cnt"/>
									<MiningField name="tgi1_35_44_5_active_max_day_diff"/>
									<MiningField name="tgi2_18_7_12m_ratio"/>
									<MiningField name="cate7010_001_35_44_install_trend"/>
									<MiningField name="cate7006_001_12m_ratio"/>
									<MiningField name="tgi2_35_44_5_12m_ratio"/>
									<MiningField name="tgi2_25_34_5_12m_ratio"/>
									<MiningField name="cate7016_004_55_install_trend"/>
									<MiningField name="cate7012_002_install_trend"/>
									<MiningField name="cate7003_008_18_install_trend"/>
									<MiningField name="cate7014_007_12m_cnt"/>
									<MiningField name="tgi2_55_3_12m_ratio"/>
									<MiningField name="fin_31_install_trend"/>
								</MiningSchema>
								<Node score="-0.0">
									<True/>
									<Node score="0.095908254">
										<SimplePredicate field="tgi2_45_54_0_12m_cnt" operator="greaterOrEqual" value="0.5"/>
										<Node score="-0.09465103">
											<SimplePredicate field="tgi2_18_7_12m_ratio" operator="greaterOrEqual" value="0.0020074998"/>
											<Node score="0.07613128">
												<SimplePredicate field="tgi2_25_34_5_12m_ratio" operator="greaterOrEqual" value="0.0018035"/>
												<Node score="-0.0">
													<SimplePredicate field="cate7003_008_18_install_trend" operator="greaterOrEqual" value="0.08782379"/>
												</Node>
											</Node>
											<Node score="-0.0">
												<SimplePredicate field="tgi2_55_3_12m_ratio" operator="greaterOrEqual" value="0.0156195"/>
											</Node>
										</Node>
										<Node score="-0.0">
											<SimplePredicate field="tgi2_35_44_5_12m_ratio" operator="greaterOrEqual" value="0.003912"/>
										</Node>
										<Node score="0.0039958307">
											<SimplePredicate field="cate7010_001_35_44_install_trend" operator="lessThan" value="0.014095264"/>
										</Node>
									</Node>
									<Node score="-0.08376972">
										<SimplePredicate field="tgi1_35_44_5_active_max_day_diff" operator="greaterOrEqual" value="-97.0"/>
										<Node score="-0.036792487">
											<SimplePredicate field="fin_31_install_trend" operator="lessThan" value="-0.24216756"/>
											<Node score="0.005170609">
												<SimplePredicate field="cate7012_002_install_trend" operator="lessThan" value="0.14976835"/>
											</Node>
										</Node>
										<Node score="-0.0">
											<SimplePredicate field="cate7006_001_12m_ratio" operator="greaterOrEqual" value="0.0048040003"/>
										</Node>
									</Node>
									<Node score="-0.0">
										<SimplePredicate field="cate7016_004_55_install_trend" operator="greaterOrEqual" value="0.015554394"/>
										<Node score="-0.08417219">
											<SimplePredicate field="cate7016_003_18_24_install_trend" operator="lessThan" value="0.08389723"/>
										</Node>
									</Node>
									<Node score="0.056271434">
										<SimplePredicate field="cate7014_007_12m_cnt" operator="greaterOrEqual" value="0.5"/>
									</Node>
								</Node>
							</TreeModel>
						</Segment>
						<Segment id="14">
							<True/>
							<TreeModel functionName="regression" noTrueChildStrategy="returnLastPrediction" x-mathContext="float">
								<MiningSchema>
									<MiningField name="tgi1_18_24_6_6m_cnt"/>
									<MiningField name="cate7016_003_12m_ratio"/>
									<MiningField name="cate7017_002_55_install_trend"/>
									<MiningField name="tgi1_35_44_1_12m_ratio"/>
									<MiningField name="tgi1_18_0_6m_ratio"/>
									<MiningField name="tgi2_18_5_12m_ratio"/>
									<MiningField name="tgi1_18_0_3m_ratio"/>
									<MiningField name="cate7006_001_12m_ratio"/>
									<MiningField name="fin_31_35_44_install_trend"/>
									<MiningField name="tgi2_55_2_12m_ratio"/>
									<MiningField name="cate7014_015_35_44_install_trend"/>
									<MiningField name="cate7_55_install_trend"/>
									<MiningField name="cate7008_008_18_install_trend"/>
								</MiningSchema>
								<Node score="-0.0804587">
									<True/>
									<Node score="-0.054592732">
										<SimplePredicate field="cate7016_003_12m_ratio" operator="greaterOrEqual" value="1.84E-4"/>
										<Node score="0.102006786">
											<SimplePredicate field="tgi2_18_5_12m_ratio" operator="greaterOrEqual" value="0.003775"/>
											<Node score="-0.0">
												<SimplePredicate field="fin_31_35_44_install_trend" operator="lessThan" value="-0.039823018"/>
											</Node>
											<Node score="-0.0">
												<SimplePredicate field="cate7014_015_35_44_install_trend" operator="greaterOrEqual" value="0.13266554"/>
											</Node>
										</Node>
										<Node score="0.008579172">
											<SimplePredicate field="cate7_55_install_trend" operator="lessThan" value="0.09004609"/>
										</Node>
										<Node score="-0.0">
											<SimplePredicate field="cate7017_002_55_install_trend" operator="greaterOrEqual" value="0.24841361"/>
										</Node>
									</Node>
									<Node score="-0.0142722055">
										<SimplePredicate field="cate7006_001_12m_ratio" operator="greaterOrEqual" value="0.002684"/>
										<Node score="0.011493409">
											<SimplePredicate field="tgi1_18_0_3m_ratio" operator="lessThan" value="0.0049855"/>
											<Node score="-0.049700756">
												<SimplePredicate field="cate7008_008_18_install_trend" operator="greaterOrEqual" value="-0.06705549"/>
											</Node>
										</Node>
										<Node score="0.04667247">
											<SimplePredicate field="tgi1_35_44_1_12m_ratio" operator="greaterOrEqual" value="0.0067999996"/>
										</Node>
									</Node>
									<Node score="0.05669876">
										<SimplePredicate field="tgi1_18_24_6_6m_cnt" operator="greaterOrEqual" value="4.5"/>
										<Node score="-0.0">
											<SimplePredicate field="tgi1_18_0_6m_ratio" operator="lessThan" value="0.0041025"/>
										</Node>
									</Node>
									<Node score="-0.018660627">
										<SimplePredicate field="tgi2_55_2_12m_ratio" operator="greaterOrEqual" value="0.0161645"/>
									</Node>
								</Node>
							</TreeModel>
						</Segment>
						<Segment id="15">
							<True/>
							<TreeModel functionName="regression" noTrueChildStrategy="returnLastPrediction" x-mathContext="float">
								<MiningSchema>
									<MiningField name="tgi2_18_24_0_12m_ratio"/>
									<MiningField name="cate7016_003_18_24_install_trend"/>
									<MiningField name="tgi2_45_54_0_12m_cnt"/>
									<MiningField name="cate7001_003_12m_ratio"/>
									<MiningField name="cate7014_016_55_install_trend"/>
									<MiningField name="cate7011_993_18_install_trend"/>
									<MiningField name="cate7010_001_35_44_install_trend"/>
									<MiningField name="fin_31_35_44_install_trend"/>
									<MiningField name="tgi2_35_44_4_12m_ratio"/>
									<MiningField name="cate7009_002_35_44_install_trend"/>
									<MiningField name="cate7015_006_12m_ratio"/>
									<MiningField name="topic_7"/>
									<MiningField name="cate7011_991_18_24_install_trend"/>
								</MiningSchema>
								<Node score="0.087052606">
									<True/>
									<Node score="-0.084083855">
										<SimplePredicate field="cate7016_003_18_24_install_trend" operator="lessThan" value="0.083170414"/>
										<Node score="-0.02742604">
											<SimplePredicate field="cate7015_006_12m_ratio" operator="greaterOrEqual" value="0.0012585"/>
											<Node score="-0.07408974">
												<SimplePredicate field="tgi2_18_24_0_12m_ratio" operator="greaterOrEqual" value="0.003516"/>
												<Node score="-0.0">
													<SimplePredicate field="topic_7" operator="lessThan" value="0.04240583"/>
												</Node>
											</Node>
											<Node score="0.038246837">
												<SimplePredicate field="cate7001_003_12m_ratio" operator="greaterOrEqual" value="0.0020585"/>
											</Node>
										</Node>
										<Node score="0.044519115">
											<SimplePredicate field="cate7014_016_55_install_trend" operator="lessThan" value="0.31717354"/>
											<Node score="-0.046729572">
												<SimplePredicate field="cate7009_002_35_44_install_trend" operator="lessThan" value="0.037320353"/>
											</Node>
										</Node>
										<Node score="-0.0">
											<SimplePredicate field="tgi2_45_54_0_12m_cnt" operator="greaterOrEqual" value="0.5"/>
										</Node>
									</Node>
									<Node score="-0.0">
										<SimplePredicate field="cate7011_993_18_install_trend" operator="lessThan" value="0.21517229"/>
										<Node score="0.046628494">
											<SimplePredicate field="cate7011_991_18_24_install_trend" operator="lessThan" value="0.15768704"/>
											<Node score="-0.015487235">
												<SimplePredicate field="cate7011_993_18_install_trend" operator="lessThan" value="0.0927438"/>
											</Node>
										</Node>
										<Node score="-0.062486622">
											<SimplePredicate field="cate7010_001_35_44_install_trend" operator="lessThan" value="0.019066958"/>
										</Node>
									</Node>
									<Node score="-0.0">
										<SimplePredicate field="fin_31_35_44_install_trend" operator="lessThan" value="-0.025222111"/>
									</Node>
									<Node score="-0.0">
										<SimplePredicate field="tgi2_35_44_4_12m_ratio" operator="greaterOrEqual" value="0.0155565"/>
									</Node>
								</Node>
							</TreeModel>
						</Segment>
						<Segment id="16">
							<True/>
							<TreeModel functionName="regression" noTrueChildStrategy="returnLastPrediction" x-mathContext="float">
								<MiningSchema>
									<MiningField name="cate7016_003_18_24_install_trend"/>
									<MiningField name="tgi2_18_5_12m_ratio"/>
									<MiningField name="cate7010_005_18_install_trend"/>
									<MiningField name="cate7018_003_18_24_install_trend"/>
									<MiningField name="fin_31_35_44_install_trend"/>
									<MiningField name="tgi1_18_6_12m_ratio"/>
									<MiningField name="cate7016_004_55_install_trend"/>
									<MiningField name="cate7006_001_install_first_min_diff"/>
									<MiningField name="cate7005_003_25_34_install_trend"/>
								</MiningSchema>
								<Node score="-0.017537976">
									<True/>
									<Node score="-0.057344776">
										<SimplePredicate field="cate7016_003_18_24_install_trend" operator="lessThan" value="0.12864217"/>
										<Node score="-0.0">
											<SimplePredicate field="cate7010_005_18_install_trend" operator="lessThan" value="-0.10562335"/>
											<Node score="-0.10749483">
												<SimplePredicate field="cate7018_003_18_24_install_trend" operator="lessThan" value="0.14172804"/>
												<Node score="-0.008089522">
													<SimplePredicate field="cate7005_003_25_34_install_trend" operator="lessThan" value="0.001025953"/>
												</Node>
											</Node>
										</Node>
										<Node score="0.02550294">
											<SimplePredicate field="cate7016_004_55_install_trend" operator="lessThan" value="0.013735284"/>
											<Node score="-0.024763083">
												<SimplePredicate field="cate7016_003_18_24_install_trend" operator="lessThan" value="0.009343192"/>
											</Node>
										</Node>
										<Node score="-0.0">
											<SimplePredicate field="tgi1_18_6_12m_ratio" operator="greaterOrEqual" value="0.0010255"/>
										</Node>
									</Node>
									<Node score="-0.0">
										<SimplePredicate field="cate7006_001_install_first_min_diff" operator="greaterOrEqual" value="4.5"/>
										<Node score="0.040241703">
											<SimplePredicate field="tgi2_18_5_12m_ratio" operator="greaterOrEqual" value="0.008527501"/>
											<Node score="-0.018642507">
												<SimplePredicate field="fin_31_35_44_install_trend" operator="lessThan" value="-0.025192736"/>
											</Node>
										</Node>
										<Node score="0.09221089">
											<SimplePredicate field="cate7016_004_55_install_trend" operator="lessThan" value="0.06423956"/>
										</Node>
									</Node>
								</Node>
							</TreeModel>
						</Segment>
						<Segment id="17">
							<True/>
							<TreeModel functionName="regression" noTrueChildStrategy="returnLastPrediction" x-mathContext="float">
								<MiningSchema>
									<MiningField name="tgi1_18_0_12m_ratio"/>
									<MiningField name="tgi2_18_5_12m_ratio"/>
									<MiningField name="tgi1_18_0_3m_ratio"/>
									<MiningField name="cate7011_993_18_install_trend"/>
									<MiningField name="tgi1_25_34_0_active_min_day_diff"/>
									<MiningField name="cate7019_133_18_24_install_trend"/>
									<MiningField name="cate7018_003_18_24_install_trend"/>
									<MiningField name="tgi2_55_2_12m_ratio"/>
									<MiningField name="cate7003_008_18_install_trend"/>
									<MiningField name="cate7012_012_18_install_trend"/>
									<MiningField name="tgi2_55_4_12m_ratio"/>
									<MiningField name="tgi2_18_1_12m_ratio"/>
								</MiningSchema>
								<Node score="0.017458133">
									<True/>
									<Node score="-0.0">
										<SimplePredicate field="cate7018_003_18_24_install_trend" operator="greaterOrEqual" value="0.22082266"/>
										<Node score="-0.020417266">
											<SimplePredicate field="cate7019_133_18_24_install_trend" operator="lessThan" value="-0.17837964"/>
											<Node score="-0.0">
												<SimplePredicate field="tgi2_18_5_12m_ratio" operator="greaterOrEqual" value="0.002211"/>
												<Node score="0.09119812">
													<SimplePredicate field="cate7011_993_18_install_trend" operator="lessThan" value="0.29319507"/>
												</Node>
											</Node>
										</Node>
										<Node score="-0.0">
											<SimplePredicate field="cate7003_008_18_install_trend" operator="lessThan" value="0.1697911"/>
											<Node score="-0.103698425">
												<SimplePredicate field="tgi2_55_4_12m_ratio" operator="greaterOrEqual" value="0.002094"/>
											</Node>
										</Node>
									</Node>
									<Node score="-0.09845617">
										<SimplePredicate field="cate7003_008_18_install_trend" operator="greaterOrEqual" value="0.17366005"/>
										<Node score="-0.002502339">
											<SimplePredicate field="tgi2_55_2_12m_ratio" operator="greaterOrEqual" value="0.020968001"/>
											<Node score="0.07203608">
												<SimplePredicate field="cate7012_012_18_install_trend" operator="lessThan" value="0.1299049"/>
											</Node>
										</Node>
										<Node score="-0.014479589">
											<SimplePredicate field="tgi2_18_1_12m_ratio" operator="greaterOrEqual" value="0.009163"/>
										</Node>
									</Node>
									<Node score="0.06205738">
										<SimplePredicate field="tgi1_25_34_0_active_min_day_diff" operator="greaterOrEqual" value="-97.0"/>
										<Node score="-0.0042061186">
											<SimplePredicate field="tgi1_18_0_3m_ratio" operator="lessThan" value="0.0055179996"/>
										</Node>
									</Node>
									<Node score="-0.03666821">
										<SimplePredicate field="tgi1_18_0_12m_ratio" operator="greaterOrEqual" value="0.0046385"/>
									</Node>
								</Node>
							</TreeModel>
						</Segment>
						<Segment id="18">
							<True/>
							<TreeModel functionName="regression" noTrueChildStrategy="returnLastPrediction" x-mathContext="float">
								<MiningSchema>
									<MiningField name="tgi2_18_24_0_12m_ratio"/>
									<MiningField name="tgi1_18_0_12m_ratio"/>
									<MiningField name="cate7017_001_55_install_trend"/>
									<MiningField name="tgi1_35_44_1_12m_ratio"/>
									<MiningField name="tgi2_18_7_12m_ratio"/>
									<MiningField name="cate7001_003_12m_ratio"/>
									<MiningField name="cate7014_006_18_install_trend"/>
									<MiningField name="topic_3"/>
									<MiningField name="cate7012_002_install_trend"/>
									<MiningField name="cate7014_007_12m_cnt"/>
									<MiningField name="cate7016_002_12m_ratio"/>
								</MiningSchema>
								<Node score="-0.009693562">
									<True/>
									<Node score="-0.0">
										<SimplePredicate field="tgi2_18_7_12m_ratio" operator="greaterOrEqual" value="0.0022804998"/>
										<Node score="0.08388497">
											<SimplePredicate field="cate7016_002_12m_ratio" operator="greaterOrEqual" value="5.905E-4"/>
											<Node score="-0.0">
												<SimplePredicate field="cate7014_006_18_install_trend" operator="lessThan" value="0.051938966"/>
											</Node>
										</Node>
										<Node score="-0.08099227">
											<SimplePredicate field="topic_3" operator="lessThan" value="0.049689397"/>
											<Node score="0.0054618404">
												<SimplePredicate field="cate7001_003_12m_ratio" operator="greaterOrEqual" value="0.0025665"/>
											</Node>
										</Node>
									</Node>
									<Node score="-0.0">
										<SimplePredicate field="cate7014_007_12m_cnt" operator="greaterOrEqual" value="1.5"/>
										<Node score="-0.0">
											<SimplePredicate field="tgi2_18_24_0_12m_ratio" operator="greaterOrEqual" value="0.0165575"/>
										</Node>
										<Node score="0.08230394">
											<SimplePredicate field="tgi1_18_0_12m_ratio" operator="greaterOrEqual" value="0.0014345"/>
										</Node>
									</Node>
									<Node score="-0.07229987">
										<SimplePredicate field="cate7012_002_install_trend" operator="greaterOrEqual" value="0.22060461"/>
										<Node score="-0.0">
											<SimplePredicate field="cate7017_001_55_install_trend" operator="lessThan" value="0.027894761"/>
										</Node>
									</Node>
									<Node score="0.030423714">
										<SimplePredicate field="tgi1_35_44_1_12m_ratio" operator="greaterOrEqual" value="0.010334499"/>
									</Node>
								</Node>
							</TreeModel>
						</Segment>
						<Segment id="19">
							<True/>
							<TreeModel functionName="regression" noTrueChildStrategy="returnLastPrediction" x-mathContext="float">
								<MiningSchema>
									<MiningField name="cate7017_001_55_install_trend"/>
									<MiningField name="cate7014_014_45_54_install_trend"/>
									<MiningField name="tgi2_35_44_6_active_min_day_diff"/>
									<MiningField name="cate7012_008_18_24_install_trend"/>
									<MiningField name="tgi1_25_34_0_active_min_day_diff"/>
									<MiningField name="tgi2_18_24_4_12m_ratio"/>
									<MiningField name="cate7019_120_18_install_trend"/>
									<MiningField name="tgi2_18_24_4_newins_first_max_diff"/>
									<MiningField name="cate7014_015_35_44_install_trend"/>
									<MiningField name="topic_13"/>
								</MiningSchema>
								<Node score="-0.004928096">
									<True/>
									<Node score="-0.0">
										<SimplePredicate field="tgi2_35_44_6_active_min_day_diff" operator="greaterOrEqual" value="-97.0"/>
										<Node score="-0.0">
											<SimplePredicate field="topic_13" operator="lessThan" value="0.04363183"/>
										</Node>
										<Node score="-0.08616765">
											<SimplePredicate field="cate7014_014_45_54_install_trend" operator="lessThan" value="0.17717716"/>
											<Node score="-0.0">
												<SimplePredicate field="cate7014_015_35_44_install_trend" operator="lessThan" value="-0.040169545"/>
											</Node>
										</Node>
									</Node>
									<Node score="0.03642832">
										<SimplePredicate field="cate7019_120_18_install_trend" operator="greaterOrEqual" value="0.08269818"/>
										<Node score="-0.0">
											<SimplePredicate field="cate7012_008_18_24_install_trend" operator="lessThan" value="0.26769298"/>
											<Node score="-0.07996485">
												<SimplePredicate field="tgi2_18_24_4_newins_first_max_diff" operator="greaterOrEqual" value="-49.0"/>
											</Node>
										</Node>
										<Node score="-0.0">
											<SimplePredicate field="tgi1_25_34_0_active_min_day_diff" operator="greaterOrEqual" value="27.5"/>
										</Node>
									</Node>
									<Node score="-0.0">
										<SimplePredicate field="cate7014_015_35_44_install_trend" operator="greaterOrEqual" value="0.16890106"/>
										<Node score="-0.092271134">
											<SimplePredicate field="cate7017_001_55_install_trend" operator="lessThan" value="0.25392637"/>
										</Node>
									</Node>
									<Node score="0.030225908">
										<SimplePredicate field="tgi2_18_24_4_12m_ratio" operator="greaterOrEqual" value="0.0061785"/>
									</Node>
								</Node>
							</TreeModel>
						</Segment>
						<Segment id="20">
							<True/>
							<TreeModel functionName="regression" noTrueChildStrategy="returnLastPrediction" x-mathContext="float">
								<MiningSchema>
									<MiningField name="cate7008_007_install_trend"/>
									<MiningField name="cate7010_006_55_install_trend"/>
									<MiningField name="tgi1_35_44_1_12m_ratio"/>
									<MiningField name="tgi1_25_34_0_active_min_day_diff"/>
									<MiningField name="tgi1_25_34_1_18_install_trend"/>
									<MiningField name="tgi1_18_6_12m_ratio"/>
									<MiningField name="tgi1_18_0_active_max_day_diff"/>
									<MiningField name="cate7_55_install_trend"/>
									<MiningField name="cate7003_008_18_install_trend"/>
									<MiningField name="tgi2_18_5_act_day_12m"/>
									<MiningField name="topic_7"/>
									<MiningField name="cate7011_991_18_24_install_trend"/>
									<MiningField name="fin_31_install_trend"/>
								</MiningSchema>
								<Node score="0.13071467">
									<True/>
									<Node score="0.00918989">
										<SimplePredicate field="topic_7" operator="greaterOrEqual" value="0.042167746"/>
										<Node score="-0.05549215">
											<SimplePredicate field="tgi1_18_0_active_max_day_diff" operator="greaterOrEqual" value="-47.0"/>
											<Node score="-0.0">
												<SimplePredicate field="tgi1_35_44_1_12m_ratio" operator="greaterOrEqual" value="0.01128"/>
												<Node score="0.07792799">
													<SimplePredicate field="cate7011_991_18_24_install_trend" operator="lessThan" value="0.30516538"/>
												</Node>
											</Node>
											<Node score="0.015068331">
												<SimplePredicate field="cate7003_008_18_install_trend" operator="lessThan" value="0.14471845"/>
											</Node>
										</Node>
										<Node score="-0.0">
											<SimplePredicate field="tgi2_18_5_act_day_12m" operator="greaterOrEqual" value="0.20833334"/>
											<Node score="-0.07625009">
												<SimplePredicate field="tgi1_18_6_12m_ratio" operator="greaterOrEqual" value="0.0023055002"/>
											</Node>
										</Node>
										<Node score="-0.036246344">
											<SimplePredicate field="cate7_55_install_trend" operator="greaterOrEqual" value="0.1270885"/>
										</Node>
									</Node>
									<Node score="-0.03269723">
										<SimplePredicate field="cate7008_007_install_trend" operator="greaterOrEqual" value="0.06432544"/>
										<Node score="0.05027027">
											<SimplePredicate field="tgi1_25_34_0_active_min_day_diff" operator="greaterOrEqual" value="-97.0"/>
											<Node score="-0.0">
												<SimplePredicate field="fin_31_install_trend" operator="lessThan" value="-0.2837127"/>
											</Node>
										</Node>
									</Node>
									<Node score="-0.0">
										<SimplePredicate field="cate7010_006_55_install_trend" operator="greaterOrEqual" value="0.0927161"/>
									</Node>
									<Node score="-0.0">
										<SimplePredicate field="tgi1_25_34_1_18_install_trend" operator="lessThan" value="0.44166955"/>
									</Node>
								</Node>
							</TreeModel>
						</Segment>
						<Segment id="21">
							<True/>
							<TreeModel functionName="regression" noTrueChildStrategy="returnLastPrediction" x-mathContext="float">
								<MiningSchema>
									<MiningField name="tgi2_18_24_0_12m_ratio"/>
									<MiningField name="cate7005_001_install_trend"/>
									<MiningField name="cate7017_001_55_install_trend"/>
									<MiningField name="tgi1_35_44_1_12m_ratio"/>
									<MiningField name="cate7014_016_55_install_trend"/>
									<MiningField name="cate7014_006_18_install_trend"/>
									<MiningField name="fin_31_35_44_install_trend"/>
									<MiningField name="tgi2_18_24_4_newins_first_max_diff"/>
									<MiningField name="cate7003_008_55_install_trend"/>
									<MiningField name="cate7012_002_install_trend"/>
									<MiningField name="cate7012_013_6m_ratio"/>
									<MiningField name="cate7012_012_18_install_trend"/>
									<MiningField name="tgi2_18_2_12m_cnt"/>
								</MiningSchema>
								<Node score="-0.0046027494">
									<True/>
									<Node score="-0.06947071">
										<SimplePredicate field="tgi2_18_24_4_newins_first_max_diff" operator="greaterOrEqual" value="-49.0"/>
										<Node score="-0.038545508">
											<SimplePredicate field="cate7014_006_18_install_trend" operator="lessThan" value="0.12370452"/>
											<Node score="-0.0">
												<SimplePredicate field="cate7003_008_55_install_trend" operator="lessThan" value="0.02725938"/>
												<Node score="0.0570622">
													<SimplePredicate field="fin_31_35_44_install_trend" operator="lessThan" value="0.16079485"/>
												</Node>
											</Node>
											<Node score="0.0050625326">
												<SimplePredicate field="cate7012_013_6m_ratio" operator="greaterOrEqual" value="0.0011105"/>
											</Node>
										</Node>
										<Node score="0.06401199">
											<SimplePredicate field="cate7012_012_18_install_trend" operator="lessThan" value="0.22128147"/>
											<Node score="-0.0">
												<SimplePredicate field="tgi2_18_24_0_12m_ratio" operator="greaterOrEqual" value="0.013925999"/>
											</Node>
										</Node>
										<Node score="0.0091143185">
											<SimplePredicate field="cate7017_001_55_install_trend" operator="lessThan" value="0.027708754"/>
										</Node>
									</Node>
									<Node score="0.07976726">
										<SimplePredicate field="tgi1_35_44_1_12m_ratio" operator="greaterOrEqual" value="0.0063265003"/>
										<Node score="-0.0058967755">
											<SimplePredicate field="cate7012_002_install_trend" operator="greaterOrEqual" value="0.23579639"/>
										</Node>
										<Node score="-0.0">
											<SimplePredicate field="cate7005_001_install_trend" operator="lessThan" value="-0.08852959"/>
										</Node>
									</Node>
									<Node score="-0.03976755">
										<SimplePredicate field="tgi2_18_2_12m_cnt" operator="greaterOrEqual" value="4.5"/>
										<Node score="0.011899984">
											<SimplePredicate field="cate7014_016_55_install_trend" operator="lessThan" value="0.07123485"/>
										</Node>
									</Node>
									<Node score="0.060132373">
										<SimplePredicate field="tgi2_18_24_0_12m_ratio" operator="greaterOrEqual" value="0.013254"/>
									</Node>
								</Node>
							</TreeModel>
						</Segment>
						<Segment id="22">
							<True/>
							<TreeModel functionName="regression" noTrueChildStrategy="returnLastPrediction" x-mathContext="float">
								<MiningSchema>
									<MiningField name="cate7010_006_55_install_trend"/>
									<MiningField name="tgi1_18_0_6m_ratio"/>
									<MiningField name="tgi1_18_0_3m_ratio"/>
									<MiningField name="cate7006_001_12m_ratio"/>
									<MiningField name="tgi2_35_44_4_12m_ratio"/>
									<MiningField name="fin_25_55_install_trend"/>
									<MiningField name="topic_0"/>
									<MiningField name="cate7016_004_55_install_trend"/>
									<MiningField name="cate7015_006_12m_ratio"/>
									<MiningField name="topic_13"/>
									<MiningField name="cate7012_012_18_install_trend"/>
									<MiningField name="tgi2_55_3_12m_ratio"/>
									<MiningField name="tgi2_18_1_12m_ratio"/>
								</MiningSchema>
								<Node score="0.04132185">
									<True/>
									<Node score="-0.011934618">
										<SimplePredicate field="cate7006_001_12m_ratio" operator="greaterOrEqual" value="0.0020154999"/>
										<Node score="0.055067345">
											<SimplePredicate field="cate7012_012_18_install_trend" operator="lessThan" value="0.118530974"/>
											<Node score="-0.042561486">
												<SimplePredicate field="tgi2_55_3_12m_ratio" operator="greaterOrEqual" value="0.0251735"/>
												<Node score="0.03695936">
													<SimplePredicate field="cate7016_004_55_install_trend" operator="lessThan" value="-0.030250348"/>
												</Node>
											</Node>
											<Node score="-0.0">
												<SimplePredicate field="topic_13" operator="greaterOrEqual" value="0.04927791"/>
											</Node>
										</Node>
										<Node score="0.0063363784">
											<SimplePredicate field="tgi1_18_0_3m_ratio" operator="lessThan" value="0.006208"/>
											<Node score="-0.043287735">
												<SimplePredicate field="tgi2_35_44_4_12m_ratio" operator="greaterOrEqual" value="0.0055775"/>
											</Node>
										</Node>
										<Node score="0.029171927">
											<SimplePredicate field="tgi2_18_1_12m_ratio" operator="greaterOrEqual" value="0.0079505"/>
										</Node>
									</Node>
									<Node score="-0.0">
										<SimplePredicate field="cate7015_006_12m_ratio" operator="greaterOrEqual" value="0.0016885"/>
										<Node score="-0.0580198">
											<SimplePredicate field="cate7010_006_55_install_trend" operator="greaterOrEqual" value="-0.15086634"/>
											<Node score="-0.0">
												<SimplePredicate field="tgi1_18_0_6m_ratio" operator="greaterOrEqual" value="0.015741"/>
											</Node>
										</Node>
									</Node>
									<Node score="0.011628948">
										<SimplePredicate field="topic_0" operator="lessThan" value="0.05291157"/>
										<Node score="-0.055729493">
											<SimplePredicate field="tgi2_35_44_4_12m_ratio" operator="greaterOrEqual" value="0.0123325"/>
										</Node>
									</Node>
									<Node score="-0.0022382508">
										<SimplePredicate field="fin_25_55_install_trend" operator="lessThan" value="-0.047625832"/>
									</Node>
								</Node>
							</TreeModel>
						</Segment>
						<Segment id="23">
							<True/>
							<TreeModel functionName="regression" noTrueChildStrategy="returnLastPrediction" x-mathContext="float">
								<MiningSchema>
									<MiningField name="tgi2_18_24_0_12m_ratio"/>
									<MiningField name="cate7017_002_55_install_trend"/>
									<MiningField name="tgi1_18_0_6m_ratio"/>
									<MiningField name="tgi1_18_0_install_first_max_diff"/>
									<MiningField name="cate7011_993_18_install_trend"/>
									<MiningField name="cate7019_133_18_24_install_trend"/>
									<MiningField name="cate7012_002_install_trend"/>
									<MiningField name="cate7014_015_35_44_install_trend"/>
									<MiningField name="cate7015_006_12m_ratio"/>
									<MiningField name="tgi2_25_34_4_12m_ratio"/>
									<MiningField name="tgi2_55_3_12m_ratio"/>
								</MiningSchema>
								<Node score="0.056377586">
									<True/>
									<Node score="-0.0">
										<SimplePredicate field="cate7015_006_12m_ratio" operator="greaterOrEqual" value="0.001743"/>
										<Node score="-0.047641523">
											<SimplePredicate field="tgi2_18_24_0_12m_ratio" operator="greaterOrEqual" value="0.0016425"/>
											<Node score="-0.0254919">
												<SimplePredicate field="cate7012_002_install_trend" operator="lessThan" value="0.08823445"/>
												<Node score="0.020705637">
													<SimplePredicate field="tgi2_25_34_4_12m_ratio" operator="greaterOrEqual" value="0.007631"/>
												</Node>
											</Node>
											<Node score="-0.0">
												<SimplePredicate field="cate7017_002_55_install_trend" operator="lessThan" value="0.0023653142"/>
											</Node>
										</Node>
										<Node score="0.05860774">
											<SimplePredicate field="tgi1_18_0_6m_ratio" operator="greaterOrEqual" value="0.0012575"/>
										</Node>
									</Node>
									<Node score="0.006062107">
										<SimplePredicate field="cate7019_133_18_24_install_trend" operator="greaterOrEqual" value="-0.14153196"/>
										<Node score="-0.002852857">
											<SimplePredicate field="cate7012_002_install_trend" operator="lessThan" value="0.123409234"/>
											<Node score="0.04591576">
												<SimplePredicate field="tgi1_18_0_install_first_max_diff" operator="greaterOrEqual" value="8.5"/>
											</Node>
										</Node>
										<Node score="-0.04807678">
											<SimplePredicate field="cate7011_993_18_install_trend" operator="lessThan" value="0.2461512"/>
										</Node>
									</Node>
									<Node score="-0.0">
										<SimplePredicate field="tgi2_55_3_12m_ratio" operator="greaterOrEqual" value="0.025934499"/>
									</Node>
									<Node score="-0.0059684985">
										<SimplePredicate field="cate7014_015_35_44_install_trend" operator="greaterOrEqual" value="0.18025954"/>
									</Node>
								</Node>
							</TreeModel>
						</Segment>
						<Segment id="24">
							<True/>
							<TreeModel functionName="regression" noTrueChildStrategy="returnLastPrediction" x-mathContext="float">
								<MiningSchema>
									<MiningField name="cate7008_007_install_trend"/>
									<MiningField name="cate2_active_min_day_diff"/>
									<MiningField name="cate7016_003_18_24_install_trend"/>
									<MiningField name="cate7001_003_12m_ratio"/>
									<MiningField name="cate7010_005_18_install_trend"/>
									<MiningField name="tgi2_18_24_4_12m_ratio"/>
									<MiningField name="tgi2_35_44_5_12m_ratio"/>
									<MiningField name="cate7018_003_18_24_install_trend"/>
									<MiningField name="cate7016_004_55_install_trend"/>
									<MiningField name="cate7012_013_6m_ratio"/>
									<MiningField name="tgi2_18_1_12m_ratio"/>
								</MiningSchema>
								<Node score="0.012733264">
									<True/>
									<Node score="-0.0">
										<SimplePredicate field="cate7016_003_18_24_install_trend" operator="greaterOrEqual" value="0.13107477"/>
										<Node score="-0.0">
											<SimplePredicate field="tgi2_18_24_4_12m_ratio" operator="greaterOrEqual" value="0.006004"/>
											<Node score="-0.0">
												<SimplePredicate field="cate2_active_min_day_diff" operator="greaterOrEqual" value="-97.0"/>
											</Node>
											<Node score="0.06394225">
												<SimplePredicate field="tgi2_18_1_12m_ratio" operator="greaterOrEqual" value="4.22E-4"/>
											</Node>
										</Node>
									</Node>
									<Node score="-0.050906464">
